<?xml version="1.0"?>
<opencv_storage>
<opencv_ml_svm>
  <format>3</format>
  <svmType>NU_SVC</svmType>
  <kernel>
    <type>LINEAR</type></kernel>
  <nu>1.0000000000000000e-02</nu>
  <term_criteria><iterations>25</iterations></term_criteria>
  <var_count>10000</var_count>
  <class_count>6</class_count>
  <class_labels type_id="opencv-matrix">
    <rows>6</rows>
    <cols>1</cols>
    <dt>i</dt>
    <data>
      0 1 2 3 4 5</data></class_labels>
  <sv_total>15</sv_total>
  <support_vectors>
    <_>
      0. 0. 0. 0. 0. 0. 0. 0. 0. 0. 0. 0. 0. 0. 0. 0. 0. 0. 0. 0. 0. 0.
      0. 0. 0. 0. 0. 0. 0. 0. 0. 0. 0. 0. 0. 0. 0. 0. 0. 0. 0. 0. 0. 0.
      0. 0. 0. 0. 0. 0. 0. 0. 0. 0. 0. 0. 0. 0. 0. 0. 0. 0. 0. 0. 0. 0.
      0. 0. 0. 0. 0. 0. 0. 0. 0. 0. 0. 0. 0. 0. 0. 0. 0. 0. 0. 0. 0. 0.
      0. 0. 0. 0. 0. 0. 0. 0. 0. 0. 0. 0. 0. 0. 0. 0. 0. 0. 0. 0. 0. 0.
      0. 0. 0. 0. 0. 0. 0. 0. 0. 0. 0. 0. 0. 0. 0. 0. 0. 0. 0. 0. 0. 0.
      0. 0. 0. 0. 0. 0. 0. 0. 0. 0. 0. 0. 0. 0. 0. 0. 0. 0. 0. 0. 0. 0.
      0. 0. 0. 0. 0. 0. 0. 0. 0. 0. 0. 0. 0. 0. 0. 0. 0. 0. 0. 0. 0. 0.
      0. 0. 0. 0. 0. 0. 0. 0. 0. 0. 0. 0. 0. 0. 0. 0. 0. 0. 0. 0. 0. 0.
      0. 0. 0. 0. 0. 0. 0. 0. 0. 0. 0. 0. 0. 0. 0. 0. 0. 0. 0. 0. 0. 0.
      0. 0. 0. 0. 0. 0. 0. 0. 0. 0. 0. 0. 0. 0. 0. 0. 0. 0. 0. 0. 0. 0.
      0. 0. 0. 0. 0. 0. 0. 0. 0. 0. 0. 0. 0. 0. 0. 0. 0. 0. 0. 0. 0. 0.
      0. 0. 0. 0. 0. 0. 0. 0. 0. 0. 0. 0. 0. 0. 0. 0. 0. 0. 0. 0. 0. 0.
      0. 0. 0. 0. 0. 0. 0. 0. 0. 0. 0. 0. 0. 0. 0. 0. 0. 0. 0. 0. 0. 0.
      0. 0. 0. 0. 0. 0. 0. 0. 0. 0. 0. 0. 0. 0. 0. 0. 0. 0. 0. 0. 0. 0.
      0. 0. 0. 0. 0. 0. 0. 0. 0. 0. 0. 0. 0. 0. 0. 0. 0. 0. 0. 0. 0. 0.
      0. 0. 0. 0. 0. 0. 0. 0. 0. 0. 0. 0. 0. 0. 0. 0. 0. 0. 0. 0. 0. 0.
      0. 0. 0. 0. 0. 0. 0. 0. 0. 0. 0. 0. 0. 0. 0. 0. 0. 0. 0. 0. 0. 0.
      0. 0. 0. 0. 0. 0. 0. 0. 0. 0. 0. 0. 0. 0. 0. 0. 0. 0. 0. 0. 0. 0.
      0. 0. 0. 0. 0. 0. 0. 0. 0. 0. 0. 0. 0. 0. 0. 0. 0. 0. 0. 0. 0. 0.
      0. 0. 0. 0. 0. 0. 0. 0. 0. 0. 0. 0. 0. 0. 0. 0. 0. 0. 0. 0. 0. 0.
      0. 0. 0. 0. 0. 0. 0. 0. 0. 0. 0. 0. 0. 0. 0. 0. 0. 0. 0. 0. 0. 0.
      0. 0. 0. 0. 0. 0. 0. 0. 0. 0. 0. 0. 0. 0. 0. 0. 0. 0. 0. 0. 0. 0.
      0. 0. 0. 0. 0. 0. 0. 0. 0. 0. 0. 0. 0. 0. 0. 0. 0. 0. 0. 0. 0. 0.
      0. 0. 0. 0. 0. 0. 0. 0. 0. 0. 0. 0. 0. 0. 0. 0. 0. 0. 0. 0. 0. 0.
      0. 0. 0. 0. 0. 0. 0. 0. 0. 0. 0. 0. 0. 0. 0. 0. 0. 0. 0. 0. 0. 0.
      0. 0. 0. 0. 0. 0. 0. 0. 0. 0. 0. 0. 0. 0. 0. 0. 0. 0. 0. 0. 0. 0.
      0. 0. 0. 0. 0. 0. 0. 0. 0. 0. 0. 0. 0. 0. 0. 0. 0. 0. 0. 0. 0. 0.
      0. 0. 0. 0. 0. 0. 0. 0. 0. 0. 0. 0. 0. 0. 0. 0. 0. 0. 0. 0. 0. 0.
      0. 0. 0. 0. 0. 0. 0. 0. 0. 0. 0. 0. 0. 0. 0. 0. 0. 0. 0. 0. 0. 0.
      0. 0. 0. 0. 0. 0. 0. 0. 0. 0. 0. 0. 0. 0. 0. 0. 0. 0. 0. 0. 0. 0.
      0. 0. 0. 0. 0. 0. 0. 0. 0. 0. 0. 0. 0. 0. 0. 0. 0. 0. 0. 0. 0. 0.
      0. 0. 0. 0. 0. 0. 0. 0. 0. 0. 0. 0. 0. 0. 0. 0. 0. 0. 0. 0. 0. 0.
      0. 0. 0. 0. 0. 0. -3.33180560e-06 -3.33180560e-06 -3.33180560e-06
      -3.33180560e-06 -3.33180560e-06 -3.33180560e-06 0. 0. 0. 0. 0. 0.
      0. 0. 0. 0. 0. 0. 0. 0. 0. 0. 0. 0. 0. 0. 0. 0. 0. 0. 0. 0. 0. 0.
      0. 0. 0. 0. 0. 0. 0. 0. 0. 0. 0. 0. 0. 0. 0. 0. 0. 0. 0. 0. 0. 0.
      0. 0. 0. 0. 0. 0. 0. 0. 0. 0. 0. 0. 0. 0. 0. 0. 0. 0. 0. 0. 0. 0.
      0. 0. 0. 0. 0. 0. 0. 0. 0. 0. 0. 0. 0. 0. 0. 0. 0. 0. 0. 0. 0. 0.
      -8.70129406e-06 -8.70129406e-06 -8.70129406e-06 -8.70129406e-06
      -8.70129406e-06 -8.70129406e-06 0. 0. 0. 0. 0. 0. 0. 0. 0. 0. 0.
      0. 0. 0. 0. 0. 0. 0. 0. 0. 0. 0. 0. 0. 0. 0. 0. 0. 0. 0. 0. 0. 0.
      0. 0. 0. 0. 0. 0. 0. 0. 0. 0. 0. 0. 0. 0. 0. 0. 0. 0. 0. 0. 0. 0.
      0. 0. 0. 0. 0. 0. 0. 0. 0. 0. 0. 0. 0. 0. 0. 0. 0. 0. 0. 0. 0. 0.
      0. 0. 0. 0. 0. 0. 0. 0. 0. 0. 0. 0. 0. -1.96251517e-06
      -1.96251517e-06 -1.96251517e-06 -1.96251517e-06 -1.06638099e-05
      -8.70129406e-06 -8.70129406e-06 -8.70129406e-06 -8.70129406e-06
      -8.70129406e-06 0. 0. 0. 0. 0. 0. 0. 0. 0. 0. 0. 0. 0. 0. 0. 0. 0.
      0. 0. 0. 0. 0. 0. 0. 0. 0. 0. 0. 0. 0. 0. 0. 0. 0. 0. 0. 0. 0. 0.
      0. 0. 0. 0. 0. 0. 0. 0. 0. 0. 0. 0. 0. 0. 0. 0. 0. 0. 0. 0. 0. 0.
      0. 0. 0. 0. 0. 0. 0. 0. 0. 0. 0. 0. 0. 0. 0. 0. 0. 0. 0. 0. 0. 0.
      0. 0. 0. 0. 0. 0. -5.41662348e-06 -5.41662348e-06 -5.41662348e-06
      -5.41662348e-06 -5.41662348e-06 -1.06638099e-05 -8.70129406e-06
      -8.70129406e-06 -8.70129406e-06 -8.70129406e-06 -8.70129406e-06 0.
      0. 0. 0. 0. 0. 0. 0. 0. 0. 0. 0. 0. 0. 0. 0. 0. 0. 0. 0. 0. 0. 0.
      0. 0. 0. 0. 0. 0. 0. 0. 0. 0. 0. 0. 0. 0. 0. 0. 0. 0. 0. 0. 0. 0.
      0. 0. 0. 0. 0. 0. 0. 0. 0. 0. 0. 0. 0. 0. 0. 0. 0. 0. 0. 0. 0. 0.
      0. 0. 0. 0. 0. 0. 0. 0. 0. 0. 0. 0. 0. 0. 0. 0. 0. 0. 0. 0. 0. 0.
      -5.41662348e-06 -5.41662348e-06 -5.41662348e-06 -5.41662348e-06
      -5.41662348e-06 -1.06638099e-05 -8.70129406e-06 -8.70129406e-06
      -8.70129406e-06 -8.70129406e-06 -8.70129406e-06 0. 0. 0. 0. 0. 0.
      0. 0. 0. 0. 0. 0. 0. 0. 0. 0. 0. 0. 0. 0. 0. 0. 0. 0. 0. 0. 0. 0.
      0. 0. 0. 0. 0. 0. 0. 0. 0. 0. 0. 0. 0. 0. 0. 0. 0. 0. 0. 0. 0. 0.
      0. 0. 0. 0. 0. 0. 0. 0. 0. 0. 0. 0. 0. 0. 0. 0. 0. 0. 0. 0. 0. 0.
      0. 0. 0. 0. 0. 0. 0. 0. 0. 0. 0. 0. 0. 0. 0. 0. 0. -5.41662348e-06
      -5.41662348e-06 -5.41662348e-06 -5.41662348e-06 -5.41662348e-06
      -1.06638099e-05 -8.70129406e-06 -8.70129406e-06 -8.70129406e-06
      -8.70129406e-06 -8.70129406e-06 0. 0. 0. 0. 0. 0. 0. 0. 0. 0. 0.
      0. 0. 0. 0. 0. 0. 0. 0. 0. 0. 0. 0. 0. 0. 0. 0. 0. 0. 0. 0. 0. 0.
      0. 0. 0. 0. 0. 0. 0. 0. 0. 0. 0. 0. 0. 0. 0. 0. 0. 0. 0. 0. 0. 0.
      0. 0. 0. 0. 0. 0. 0. 0. 0. 0. 0. 0. 0. 0. 0. 0. 0. 0. 0. 0. 0. 0.
      0. 0. 0. 0. 0. 0. 0. 0. 0. 0. 0. 0. -5.41662348e-06
      -5.41662348e-06 -5.41662348e-06 -5.41662348e-06 -5.41662348e-06
      -1.06638099e-05 -8.70129406e-06 -8.70129406e-06 -8.70129406e-06
      -8.70129406e-06 -8.70129406e-06 0. 0. 0. 0. 0. 0. 0. 0. 0. 0. 0.
      0. 0. 0. 0. 0. 0. 0. 0. 0. 0. 0. 0. 0. 0. 0. 0. 0. 0. 0. 0. 0. 0.
      0. 0. 0. 0. 0. 0. 0. 0. 0. 0. 0. 0. 0. 0. 0. 0. 0. 0. 0. 0. 0. 0.
      0. 0. 0. 0. 0. 0. 0. 0. 0. 0. 0. 0. 0. 0. 0. 0. 0. 0. 0. 0. 0. 0.
      0. 0. 0. 0. 0. 0. 0. 0. 0. 0. 0. 0. -5.41662348e-06
      -5.41662348e-06 -5.41662348e-06 -5.41662348e-06 -5.41662348e-06
      -5.36948846e-06 -8.70129406e-06 -8.70129406e-06 -8.70129406e-06
      -8.70129406e-06 -8.70129406e-06 0. 0. 0. 0. 0. -6.12079566e-06
      -6.12079566e-06 -6.12079566e-06 -6.12079566e-06 -6.12079566e-06 0.
      0. 0. 0. 0. 0. 0. 0. 0. 0. 0. 0. 0. 0. 0. 0. 0. 0. 0. 0. 0. 0. 0.
      0. 0. 0. 0. 0. 0. 0. 0. 0. 0. 0. 0. 0. 0. 0. 0. 0. 0. 0. 0. 0. 0.
      0. 0. 0. 0. 0. 0. 0. 0. 0. 0. 0. 0. 0. 0. 0. 0. 0. 0. 0. 0. 0. 0.
      0. 0. 0. 0. 0. 0. 0. 0. 0. 0. 0. 0. -5.41662348e-06
      -5.41662348e-06 -5.41662348e-06 -5.41662348e-06 -5.41662348e-06
      -5.36948846e-06 -8.70129406e-06 -8.70129406e-06 -8.70129406e-06
      -8.70129406e-06 -8.70129406e-06 0. 0. 0. 0. 0. -6.12079566e-06
      -6.12079566e-06 -6.12079566e-06 -6.12079566e-06 -6.12079566e-06 0.
      0. 0. 0. 0. 0. 0. 0. 0. 0. 0. 0. 0. 0. 0. 0. 0. 0. 0. 0. 0. 0. 0.
      0. 0. 0. 0. 0. 0. 0. 0. 0. 0. 0. 0. 0. 0. 0. 0. 0. 0. 0. 0. 0. 0.
      0. 0. 0. 0. 0. 0. 0. 0. 0. 0. 0. 0. 0. 0. 0. 0. 0. 0. 0. 0. 0. 0.
      0. 0. 0. 0. 0. 0. 0. 0. 0. 0. 0. 0. -5.41662348e-06
      -5.41662348e-06 -5.41662348e-06 -5.41662348e-06 -5.41662348e-06 0.
      -8.70129406e-06 -8.70129406e-06 -8.70129406e-06 -8.70129406e-06
      -8.70129406e-06 0. -1.93621440e-06 -1.93621440e-06 -1.93621440e-06
      -1.93621440e-06 -8.05700984e-06 -6.12079566e-06 -6.12079566e-06
      -6.12079566e-06 -6.12079566e-06 0. 0. 0. 0. 0. 0. 0. 0. 0. 0. 0.
      0. 0. 0. 0. 0. 0. 0. 0. 0. 0. 0. 0. 0. 0. 0. 0. 0. 0. 0. 0. 0. 0.
      0. 0. 0. 0. 0. 0. 0. 0. 0. 0. 0. 0. 0. 0. 0. 0. 0. 0. 0. 0. 0. 0.
      0. 0. 0. 0. 0. 0. 0. 0. 0. 0. 0. 0. 0. 0. 0. 0. 0. 0. 0. 0. 0. 0.
      0. 0. -5.41662348e-06 -5.41662348e-06 -5.41662348e-06
      -5.41662348e-06 -5.41662348e-06 -3.45410831e-06 -8.70129406e-06
      -8.70129406e-06 -8.70129406e-06 -8.70129406e-06 -8.70129406e-06
      -5.26801978e-06 -1.93621440e-06 -1.93621440e-06 -1.93621440e-06
      -1.93621440e-06 -8.05700984e-06 -6.12079566e-06 -6.12079566e-06
      -6.12079566e-06 -6.12079566e-06 0. 0. 0. 0. 0. 0. 0. 0. 0. 0. 0.
      0. 0. 0. 0. 0. 0. 0. 0. 0. 0. 0. 0. 0. 0. 0. 0. 0. 0. 0. 0. 0. 0.
      0. 0. 0. 0. 0. 0. 0. 0. 0. 0. 0. 0. 0. 0. 0. 0. 0. 0. 0. 0. 0. 0.
      0. 0. 0. 0. 0. 0. 0. 0. 0. 0. 0. 0. 0. 0. 0. 0. 0. 0. 0. 0. 0. 0.
      0. 0. -5.41662348e-06 -5.41662348e-06 -5.41662348e-06
      -5.41662348e-06 -5.41662348e-06 -3.45410831e-06 -8.70129406e-06
      -8.70129406e-06 -8.70129406e-06 -8.70129406e-06 -8.70129406e-06
      -5.26801978e-06 -1.93621440e-06 -1.93621440e-06 -1.93621440e-06
      -1.93621440e-06 -8.05700984e-06 -6.12079566e-06 -6.12079566e-06
      -6.12079566e-06 -6.12079566e-06 0. 0. 0. 0. 0. 0. 0. 0. 0. 0. 0.
      0. 0. 0. 0. 0. 0. 0. 0. 0. 0. 0. 0. 0. 0. 0. 0. 0. 0. 0. 0. 0. 0.
      0. 0. 0. 0. 0. 0. 0. 0. 0. 0. 0. 0. 0. 0. 0. 0. 0. 0. 0. 0. 0. 0.
      0. 0. 0. 0. 0. 0. 0. 0. 0. 0. 0. 0. 0. 0. 0. 0. 0. 0. 0. 0. 0. 0.
      0. 0. -5.41662348e-06 -5.41662348e-06 -5.41662348e-06
      -5.41662348e-06 -5.41662348e-06 -3.45410831e-06 -8.70129406e-06
      -8.70129406e-06 -8.70129406e-06 -8.70129406e-06 -8.70129406e-06
      -5.26801978e-06 -1.93621440e-06 -1.93621440e-06 -1.93621440e-06
      -1.93621440e-06 -8.05700984e-06 -6.12079566e-06 -6.12079566e-06
      -6.12079566e-06 -6.12079566e-06 0. 0. 0. 0. 0. 0. 0. 0. 0. 0. 0.
      0. 0. 0. 0. 0. 0. 0. 0. 0. 0. 0. 0. 0. 0. 0. 0. 0. 0. 0. 0. 0. 0.
      0. 0. 0. 0. 0. 0. 0. 0. 0. 0. 0. 0. 0. 0. 0. 0. 0. 0. 0. 0. 0. 0.
      0. 0. 0. 0. 0. 0. 0. 0. 0. 0. 0. 0. 0. 0. 0. 0. 0. 0. 0. 0. 0. 0.
      0. 0. -5.41662348e-06 -5.41662348e-06 -5.41662348e-06
      -5.41662348e-06 -5.41662348e-06 -3.45410831e-06 -8.70129406e-06
      -8.70129406e-06 -8.70129406e-06 -8.70129406e-06 -8.70129406e-06
      -5.26801978e-06 -1.93621440e-06 -1.93621440e-06 -1.93621440e-06
      -1.93621440e-06 -8.05700984e-06 -6.12079566e-06 -6.12079566e-06
      -6.12079566e-06 -6.12079566e-06 0. 0. 0. 0. 0. 0. 0. 0. 0. 0. 0.
      0. 0. 0. 0. 0. 0. 0. 0. 0. 0. 0. 0. 0. 0. 0. 0. 0. 0. 0. 0. 0. 0.
      0. 0. 0. 0. 0. 0. 0. 0. 0. 0. 0. 0. 0. 0. 0. 0. 0. 0. 0. 0. 0. 0.
      0. 0. 0. 0. 0. 0. 0. 0. 0. 0. 0. 0. 0. 0. 0. 0. 0. 0. 0. 0. 0. 0.
      0. 0. -5.41662348e-06 -5.41662348e-06 -5.41662348e-06
      -5.41662348e-06 -5.41662348e-06 -3.45410831e-06 -8.70129406e-06
      -8.70129406e-06 -8.70129406e-06 -8.70129406e-06 -8.70129406e-06
      -5.26801978e-06 -1.93621440e-06 -1.93621440e-06 -1.93621440e-06
      -1.93621440e-06 -8.05700984e-06 -6.12079566e-06 -6.12079566e-06
      -4.06577146e-06 -4.06577146e-06 2.05502397e-06 2.05502397e-06
      2.05502397e-06 2.05502397e-06 2.05502397e-06 2.05502397e-06
      2.05502397e-06 2.05502397e-06 2.05502397e-06 2.05502397e-06
      2.05502397e-06 0. 0. 0. 0. 0. 0. 0. 0. 0. 0. 0. 0. 0. 0. 0. 0. 0.
      0. 0. 0. 0. 0. 0. 0. 0. 0. 0. 0. 0. 0. 0. 0. 0. 0. 0. 0. 0. 0. 0.
      0. 0. 0. 0. 0. 0. 0. 0. 0. 0. 0. 0. 0. 0. 0. 0. 0. 0. 0. 0. 0. 0.
      0. 0. 0. 0. 0. 0. 0. -1.96251517e-06 -5.41662348e-06
      -5.41662348e-06 -5.41662348e-06 -5.41662348e-06 -3.45410831e-06
      -8.70129406e-06 -8.70129406e-06 -8.70129406e-06 -8.70129406e-06
      -8.70129406e-06 -5.26801978e-06 -1.93621440e-06 -1.93621440e-06
      -1.93621440e-06 1.18809609e-07 -4.06577146e-06 -4.06577146e-06
      -4.06577146e-06 -4.06577146e-06 -4.06577146e-06 2.05502397e-06
      2.05502397e-06 2.05502397e-06 2.05502397e-06 2.05502397e-06
      2.05502397e-06 2.05502397e-06 2.05502397e-06 2.05502397e-06
      2.05502397e-06 2.05502397e-06 2.05502397e-06 2.05502397e-06 0. 0.
      0. 0. 0. 0. 0. 0. 0. 0. 0. 0. 0. 0. 0. 0. 0. 0. 0. 0. 0. 0. 0. 0.
      0. 0. 0. 0. 0. 0. 0. 0. 0. 0. 0. 0. 0. 0. 0. 0. 0. 0. 0. 0. 0. 0.
      0. 0. 0. 0. 0. 0. 0. 0. 0. 0. 0. 0. 0. 0. 0. 0. 0. 0. 0. 0.
      -1.96251517e-06 -5.41662348e-06 -5.41662348e-06 -5.41662348e-06
      -5.41662348e-06 -3.45410831e-06 -5.36948846e-06 -8.70129406e-06
      -8.70129406e-06 -8.70129406e-06 -8.70129406e-06 -5.26801978e-06
      1.18809609e-07 1.18809609e-07 1.18809609e-07 1.18809609e-07
      -4.06577146e-06 -4.06577146e-06 -4.06577146e-06 -4.06577146e-06
      -4.06577146e-06 2.05502397e-06 2.05502397e-06 2.05502397e-06
      2.05502397e-06 2.05502397e-06 2.05502397e-06 6.29267879e-06
      6.29267879e-06 6.29267879e-06 6.29267879e-06 6.29267879e-06
      6.29267879e-06 6.29267879e-06 4.23765505e-06 4.23765505e-06 0. 0.
      0. 0. 0. 0. 0. 0. 0. 0. 0. 0. 0. 0. 0. 0. 0. 0. 0. 0. 0. 0. 0. 0.
      0. 0. 0. 0. 0. 0. 0. 0. 0. 0. 0. 0. 0. 0. 0. 0. 0. 0. 0. 0. 0. 0.
      0. 0. 0. 0. 0. 0. 0. 0. 0. 0. 0. 0. 0. 0. 0. 0. 0. 0.
      -1.96251517e-06 -5.41662348e-06 -5.41662348e-06 -5.41662348e-06
      -5.41662348e-06 -3.45410831e-06 -5.36948846e-06 -8.70129406e-06
      -8.70129406e-06 -8.70129406e-06 -8.58248495e-06 -3.21299603e-06
      1.18809609e-07 1.18809609e-07 1.18809609e-07 1.18809609e-07
      -4.06577146e-06 -4.06577146e-06 -4.06577146e-06 -4.06577146e-06
      -4.06577146e-06 2.05502397e-06 2.05502397e-06 2.05502397e-06
      6.29267879e-06 6.29267879e-06 6.29267879e-06 6.29267879e-06
      6.29267879e-06 6.29267879e-06 6.29267879e-06 6.29267879e-06
      6.29267879e-06 6.29267879e-06 4.23765505e-06 4.23765505e-06 0. 0.
      0. 0. 0. 0. 0. 0. 0. 0. 0. 0. 0. 0. 0. 0. 0. 0. 0. 0. 0. 0. 0. 0.
      0. 0. 0. 0. 0. 0. 0. 0. 0. 0. 0. 0. 0. 0. 0. 0. 0. 0. 0. 0. 0. 0.
      0. 0. 0. 0. 0. 0. 0. 0. 0. 0. 0. 0. 0. 0. 0. 0. 0. 0.
      -1.96251517e-06 -5.41662348e-06 -5.41662348e-06 -5.41662348e-06
      -5.41662348e-06 -3.45410831e-06 -5.36948846e-06 -8.70129406e-06
      -8.70129406e-06 -6.64627032e-06 -8.58248495e-06 -3.21299603e-06
      -3.21299603e-06 1.18809609e-07 1.18809609e-07 1.18809609e-07
      -4.06577146e-06 -4.06577146e-06 -4.06577146e-06 -4.06577146e-06
      -4.06577146e-06 2.05502397e-06 7.64171546e-06 7.64171546e-06
      7.64171546e-06 7.64171546e-06 7.64171546e-06 7.64171546e-06
      7.64171546e-06 7.64171546e-06 7.64171546e-06 7.64171546e-06
      7.64171546e-06 7.64171546e-06 6.29267879e-06 6.29267879e-06 0. 0.
      0. 0. 0. 0. 0. 0. 0. 0. 0. 0. 0. 0. 0. 0. 0. 0. 0. 0. 0. 0. 0. 0.
      0. 0. 0. 0. 0. 0. 0. 0. 0. 0. 0. 0. 0. 0. 0. 0. 0. 0. 0. 0. 0. 0.
      0. 0. 0. 0. 0. 0. 0. 0. 0. 0. 0. 0. 0. 0. 0. 0. 0. 0.
      -1.96251517e-06 -5.41662348e-06 -5.41662348e-06 -5.41662348e-06
      -5.41662348e-06 -3.45410831e-06 -5.36948846e-06 -8.70129406e-06
      -6.64627032e-06 -6.64627032e-06 -8.58248495e-06 -3.21299603e-06
      -3.21299603e-06 1.18809609e-07 1.18809609e-07 1.18809609e-07
      -4.06577146e-06 -2.71673525e-06 -2.71673525e-06 -2.71673525e-06
      1.52091968e-06 7.64171546e-06 7.64171546e-06 7.64171546e-06
      5.58669126e-06 5.58669126e-06 5.58669126e-06 7.64171546e-06
      7.64171546e-06 7.64171546e-06 7.64171546e-06 7.64171546e-06
      7.64171546e-06 7.64171546e-06 7.64171546e-06 6.29267879e-06 0. 0.
      0. 0. 0. 0. 0. 0. 0. 0. 0. 0. 0. 0. 0. 0. 0. 0. 0. 0. 0. 0. 0. 0.
      0. 0. 0. 0. 0. 0. 0. 0. 0. 0. 0. 0. 0. 0. 0. 0. 0. 0. 0. 0. 0. 0.
      0. 0. 0. 0. 0. 0. 0. 0. 0. 0. 0. 0. 0. 0. 0. 0. 0. 0.
      -1.96251517e-06 -5.41662348e-06 -5.41662348e-06 -5.41662348e-06
      -5.41662348e-06 -3.45410831e-06 -5.36948846e-06 -6.64627032e-06
      -6.64627032e-06 -6.64627032e-06 -8.58248495e-06 -3.21299603e-06
      -3.21299603e-06 1.18809609e-07 1.46784600e-06 1.46784600e-06
      -2.71673525e-06 -2.71673525e-06 1.52091968e-06 5.21615902e-06
      3.16113506e-06 9.28193094e-06 9.28193094e-06 9.28193094e-06
      9.28193094e-06 9.28193094e-06 9.28193094e-06 9.28193094e-06
      9.28193094e-06 7.64171546e-06 7.64171546e-06 7.64171546e-06
      7.64171546e-06 7.64171546e-06 7.64171546e-06 7.64171546e-06
      2.05502397e-06 0. 0. 0. 0. 0. 0. 0. 0. 0. 0. 0. 0. 0. 0. 0. 0. 0.
      0. 0. 0. 0. 0. 0. 0. 0. 0. 0. 0. 0. 0. 0. 0. 0. 0. 0. 0. 0. 0. 0.
      0. 0. 0. 0. 0. 0. 0. 0. 0. 0. 0. 0. 0. 0. 0. 0. 0. 0. 0. 0. 0. 0.
      0. 0. -1.96251517e-06 -5.41662348e-06 -5.41662348e-06
      -5.41662348e-06 -5.41662348e-06 -1.39908445e-06 -6.76857326e-06
      -6.64627032e-06 -6.64627032e-06 -6.64627032e-06 -8.58248495e-06
      -3.21299603e-06 -1.86395960e-06 1.46784600e-06 1.46784600e-06
      5.16308501e-06 3.16113506e-06 3.16113506e-06 3.16113506e-06
      3.16113506e-06 3.16113506e-06 9.28193094e-06 9.28193094e-06
      9.28193094e-06 9.28193094e-06 1.15681642e-05 1.15681642e-05
      1.15681642e-05 1.15681642e-05 9.92794958e-06 9.92794958e-06
      9.92794958e-06 9.92794958e-06 9.92794958e-06 7.64171546e-06
      7.64171546e-06 2.05502397e-06 0. 0. 0. 0. 0. 0. 0. 0. 0. 0. 0. 0.
      0. 0. 0. 0. 0. 0. 0. 0. 0. 0. 0. 0. 0. 0. 0. 0. 0. 0. 0. 0. 0. 0.
      0. 0. 0. 0. 0. 0. 0. 0. 0. 0. 0. 0. 0. 0. 0. 0. 0. 0. 0. 0. 0. 0.
      0. 0. 0. 0. 0. 0. 0. -1.96251517e-06 -5.41662348e-06
      -5.41662348e-06 -5.41662348e-06 -3.36159974e-06 -1.39908445e-06
      -6.76857326e-06 -6.64627032e-06 -6.64627032e-06 -6.64627032e-06
      -8.58248495e-06 -1.86395960e-06 1.83127952e-06 5.16308501e-06
      5.16308501e-06 7.34571631e-06 3.16113506e-06 3.16113506e-06
      3.16113506e-06 3.16113506e-06 3.16113506e-06 9.28193094e-06
      1.15681642e-05 1.15681642e-05 1.15681642e-05 1.15681642e-05
      1.15681642e-05 1.15681642e-05 7.33050956e-06 5.69029407e-06
      9.92794958e-06 9.92794958e-06 9.92794958e-06 9.92794958e-06
      7.64171546e-06 7.64171546e-06 6.29267879e-06 0. 0. 0. 0. 0. 0. 0.
      0. 0. 0. 0. 0. 0. 0. 0. 0. 0. 0. 0. 0. 0. 0. 0. 0. 0. 0. 0. 0. 0.
      0. 0. 0. 0. 0. 0. 0. 0. 0. 0. 0. 0. 0. 0. 0. 0. 0. 0. 0. 0. 0. 0.
      0. 0. 0. 0. 0. 0. 0. 0. 0. 0. 0. 0. -1.96251517e-06
      -5.41662348e-06 -5.41662348e-06 -3.36159974e-06 -3.36159974e-06
      -1.39908445e-06 -6.76857326e-06 -6.64627032e-06 -6.64627032e-06
      -2.95103109e-06 -3.53820906e-06 1.83127952e-06 1.83127952e-06
      5.16308501e-06 7.34571631e-06 9.28193094e-06 3.16113506e-06
      3.16113506e-06 3.16113506e-06 3.16113506e-06 5.44736895e-06
      5.44736895e-06 1.15681642e-05 1.15681642e-05 1.15681642e-05
      1.15681642e-05 7.33050956e-06 5.98147290e-06 5.98147290e-06
      5.69029407e-06 9.92794958e-06 9.92794958e-06 9.92794958e-06
      9.92794958e-06 7.64171546e-06 7.64171546e-06 7.64171546e-06 0. 0.
      0. 0. 0. 0. 0. 0. 0. 0. 0. 0. 0. 0. 0. 0. 0. 0. 0. 0. 0. 0. 0. 0.
      0. 0. 0. 0. 0. 0. 0. 0. 0. 0. 0. 0. 0. 0. 0. 0. 0. 0. 0. 0. 0. 0.
      0. 0. 0. 0. 0. 0. 0. 0. 0. 0. 0. 0. 0. 0. 0. 0. 0. -1.96251517e-06
      -5.41662348e-06 -5.41662348e-06 -3.36159974e-06 -3.36159974e-06
      -1.39908445e-06 -6.76857326e-06 3.80774424e-07 -2.95103109e-06
      -1.60199477e-06 -3.53820906e-06 1.83127952e-06 -2.23744365e-07
      7.34571631e-06 7.34571631e-06 9.28193094e-06 3.16113506e-06
      3.16113506e-06 5.44736895e-06 5.44736895e-06 5.44736895e-06
      5.44736895e-06 1.02191279e-05 1.02191279e-05 5.98147290e-06
      5.98147290e-06 5.98147290e-06 5.98147290e-06 5.98147290e-06
      9.38553330e-06 1.36231884e-05 1.36231884e-05 1.36231884e-05
      1.36231884e-05 7.64171546e-06 7.64171546e-06 7.64171546e-06 0. 0.
      0. 0. 0. 0. 0. 0. 0. 0. 0. 0. 0. 0. 0. 0. 0. 0. 0. 0. 0. 0. 0. 0.
      0. 0. 0. 0. 0. 0. 0. 0. 0. 0. 0. 0. 0. 0. 0. 0. 0. 0. 0. 0. 0. 0.
      0. 0. 0. 0. 0. 0. 0. 0. 0. 0. 0. 0. 0. 0. 0. 0. 0. -1.96251517e-06
      -5.41662348e-06 -3.36159974e-06 -3.36159974e-06 -3.36159974e-06
      2.29615466e-06 -3.07333403e-06 3.80774424e-07 -1.60199477e-06
      -1.60199477e-06 -3.53820906e-06 -2.23744365e-07 4.01391071e-06
      7.34571631e-06 7.34571631e-06 9.28193094e-06 5.44736895e-06
      5.44736895e-06 5.44736895e-06 4.09833274e-06 4.09833274e-06
      4.09833274e-06 6.35659717e-06 6.35659717e-06 2.66135794e-06
      2.66135794e-06 2.66135794e-06 6.35659717e-06 6.35659717e-06
      9.76065712e-06 1.39983122e-05 1.39983122e-05 1.39983122e-05
      1.39983122e-05 1.39983122e-05 1.03030734e-05 1.03030734e-05
      2.66135794e-06 2.28623389e-06 0. 0. 0. 0. 0. 0. 0. 0. 0. 0. 0. 0.
      0. 0. 0. 0. 0. 0. 0. 0. 0. 0. 0. 0. 0. 0. 0. 0. 0. 0. 0. 0. 0. 0.
      0. 0. 0. 0. 0. 0. 0. 0. 0. 0. 0. 0. 0. 0. 0. 0. 0. 0. 0. 0. 0. 0.
      0. 0. 0. 0. 0. -1.96251517e-06 -3.36159974e-06 -3.36159974e-06
      -3.36159974e-06 3.33639463e-07 2.29615466e-06 -3.07333403e-06
      1.72981083e-06 -1.60199477e-06 -1.60199477e-06 -5.59323280e-06
      4.01391071e-06 4.01391071e-06 7.34571631e-06 7.34571631e-06
      1.19432880e-05 4.47345656e-06 4.47345656e-06 4.47345656e-06
      7.78217270e-07 7.78217270e-07 -3.45943772e-06 2.66135794e-06
      2.66135794e-06 2.66135794e-06 2.66135794e-06 2.66135794e-06
      6.35659717e-06 6.35659717e-06 7.47442346e-06 1.17120780e-05
      1.17120780e-05 1.17120780e-05 1.39983122e-05 1.39983122e-05
      1.84796882e-05 1.84796882e-05 1.50756287e-05 1.08379736e-05
      1.08379736e-05 8.55173948e-06 3.75123875e-07 0. 0. 0. 0. 0. 0. 0.
      0. 0. 0. 0. 0. 0. 0. 0. 0. 0. 0. 0. 0. 0. 0. 0. 0. 0. 0. 0. 0. 0.
      0. 0. 0. 0. 0. 0. 0. 0. 0. 0. 0. 0. 0. 0. 0. 0. 0. 0. 0. 0. 0. 0.
      0. 0. 0. 0. 0. 0. 0. -1.96251517e-06 9.25086425e-08
      -3.36159974e-06 3.33639463e-07 3.33639463e-07 2.29615466e-06
      -3.07333403e-06 1.72981083e-06 -1.60199477e-06 -3.65701862e-06
      -1.35557809e-06 4.01391071e-06 4.01391071e-06 1.00070738e-05
      1.00070738e-05 1.05942518e-05 7.78217270e-07 7.78217270e-07
      7.78217270e-07 -3.45943772e-06 -3.45943772e-06 -3.45943772e-06
      2.66135794e-06 2.66135794e-06 2.66135794e-06 2.66135794e-06
      4.07036305e-06 4.07036305e-06 4.07036305e-06 7.47442346e-06
      1.17120780e-05 1.98886937e-05 2.21749269e-05 2.21749269e-05
      2.21749269e-05 1.84796882e-05 1.84796882e-05 1.50756287e-05
      1.08379736e-05 1.08379736e-05 8.55173948e-06 3.75123875e-07 0. 0.
      0. 0. 0. 0. 0. 0. 0. 0. 0. 0. 0. 0. 0. 0. 0. 0. 0. 0. 0. 0. 0. 0.
      0. 0. 0. 0. 0. 0. 0. 0. 0. 0. 0. 0. 0. 0. 0. 0. 0. 0. 0. 0. 0. 0.
      0. 0. 0. 0. 0. 0. 0. 0. 0. 0. 0. 0. 9.25086425e-08 9.25086425e-08
      3.33639463e-07 3.33639463e-07 3.33639463e-07 2.29615466e-06
      -1.72429748e-06 1.72981083e-06 -3.65701862e-06 -3.65701862e-06
      -1.35557809e-06 4.38903453e-06 6.67526865e-06 1.00070738e-05
      4.96279836e-06 6.89901299e-06 7.78217270e-07 7.78217270e-07
      7.78217270e-07 -3.45943772e-06 -3.45943772e-06 -3.45943772e-06
      2.66135794e-06 2.66135794e-06 2.66135794e-06 3.75123875e-07
      4.07036305e-06 1.22469783e-05 1.35960145e-05 1.98886937e-05
      1.98886937e-05 1.98886937e-05 2.21749269e-05 2.21749269e-05
      2.21749269e-05 1.84796882e-05 1.84796882e-05 1.50756287e-05
      1.08379736e-05 1.08379736e-05 8.55173948e-06 3.75123875e-07 0. 0.
      0. 0. 0. 0. 0. 0. 0. 0. 0. 0. 0. 0. 0. 0. 0. 0. 0. 0. 0. 0. 0. 0.
      0. 0. 0. 0. 0. 0. 0. 0. 0. 0. 0. 0. 0. 0. 0. 0. 0. 0. 0. 0. 0. 0.
      0. 0. 0. 0. 0. 0. 0. 0. 0. 0. 0. 2.05502397e-06 9.25086425e-08
      3.78774780e-06 3.33639463e-07 3.33639463e-07 3.33639463e-07
      3.64519110e-06 -1.72429748e-06 -3.25213108e-07 -3.28189481e-06
      9.55760129e-07 1.30577985e-06 2.98002919e-06 2.98002919e-06
      4.96279836e-06 4.96279836e-06 6.89901299e-06 7.78217270e-07
      7.78217270e-07 -3.45943772e-06 -3.45943772e-06 -3.45943772e-06
      -3.45943772e-06 2.66135794e-06 3.75123875e-07 8.55173948e-06
      8.55173948e-06 1.22469783e-05 1.22469783e-05 1.35960145e-05
      1.98886937e-05 1.98886937e-05 1.98886937e-05 2.21749269e-05
      2.21749269e-05 2.21749269e-05 1.84796882e-05 1.84796882e-05
      1.50756287e-05 1.08379736e-05 1.08379736e-05 1.08379736e-05
      3.75123875e-07 0. 0. 0. 0. 0. 0. 0. 0. 0. 0. 0. 0. 0. 0. 0. 0. 0.
      0. 0. 0. 0. 0. 0. 0. 0. 0. 0. 0. 0. 0. 0. 0. 0. 0. 0. 0. 0. 0. 0.
      0. 0. 0. 0. 0. 0. 0. 0. 0. 0. 0. 0. 0. 0. 0. 0. 0. 0.
      2.05502397e-06 9.25086425e-08 3.78774780e-06 3.33639463e-07
      3.33639463e-07 3.33639463e-07 3.64519110e-06 -1.72429748e-06
      4.99107777e-08 9.55760129e-07 -4.53245036e-07 -2.38945927e-06
      2.98002919e-06 2.98002919e-06 4.96279836e-06 4.96279836e-06
      6.89901299e-06 6.89901299e-06 -3.45943772e-06 -3.45943772e-06
      -3.45943772e-06 4.71717794e-06 2.43094382e-06 8.55173948e-06
      8.55173948e-06 8.55173948e-06 8.55173948e-06 1.22469783e-05
      1.18718544e-05 1.32208907e-05 1.95135690e-05 1.95135690e-05
      1.98886937e-05 2.21749269e-05 2.21749269e-05 2.21749269e-05
      1.84796882e-05 1.84796882e-05 1.50756287e-05 1.08379736e-05
      1.08379736e-05 1.08379736e-05 3.75123875e-07 0. 0. 0. 0. 0. 0. 0.
      0. 0. 0. 0. 0. 0. 0. 0. 0. 0. 0. 0. 0. 0. 0. 0. 0. 0. 0. 0. 0. 0.
      0. 0. 0. 0. 0. 0. 0. 0. 0. 0. 0. 0. 0. 0. 0. 0. 0. 0. 0. 0. 0. 0.
      0. 0. 0. 0. 0. 2.05502397e-06 2.05502397e-06 3.78774780e-06
      3.78774780e-06 3.33639463e-07 3.33639463e-07 1.68267582e-06
      3.64519110e-06 -3.40419751e-06 4.28756584e-06 -4.53245036e-07
      -4.53245036e-07 -2.38945927e-06 2.98002919e-06 1.63099287e-06
      4.96279836e-06 4.96279836e-06 6.89901299e-06 2.66135794e-06
      -3.45943772e-06 4.71717794e-06 2.43094382e-06 2.05581978e-06
      2.05581978e-06 8.17661567e-06 8.17661567e-06 8.17661567e-06
      8.17661567e-06 1.18718544e-05 1.18718544e-05 1.32208907e-05
      1.95135690e-05 1.95135690e-05 2.21749269e-05 2.21749269e-05
      2.21749269e-05 2.21749269e-05 1.84796882e-05 1.71306529e-05
      1.50756287e-05 1.04628498e-05 1.04628498e-05 2.28623389e-06 0. 0.
      0. 0. 0. 0. 0. 0. 0. 0. 0. 0. 0. 0. 0. 0. 0. 0. 0. 0. 0. 0. 0. 0.
      0. 0. 0. 0. 0. 0. 0. 0. 0. 0. 0. 0. 0. 0. 0. 0. 0. 0. 0. 0. 0. 0.
      0. 0. 0. 0. 0. 0. 0. 0. 0. 0. 0. 2.05502397e-06 5.75026297e-06
      3.78774780e-06 3.78774780e-06 3.33639463e-07 3.33639463e-07
      1.68267582e-06 1.96529118e-06 8.33457420e-07 6.57379951e-06
      -4.53245036e-07 -4.53245036e-07 -2.38945927e-06 1.63099287e-06
      1.63099287e-06 4.96279836e-06 4.96279836e-06 2.66135794e-06
      2.66135794e-06 4.34205367e-06 2.05581978e-06 2.05581978e-06
      2.05581978e-06 2.05581978e-06 8.17661567e-06 8.17661567e-06
      8.17661567e-06 8.17661567e-06 1.18718544e-05 1.18718544e-05
      1.32208907e-05 1.95135690e-05 1.95135690e-05 2.21749269e-05
      2.21749269e-05 2.21749269e-05 2.21749269e-05 1.03030734e-05
      8.95403628e-06 6.89901299e-06 2.28623389e-06 2.28623389e-06
      2.28623389e-06 0. 0. 0. 0. 0. 0. 0. 0. 0. 0. 0. 0. 0. 0. 0. 0. 0.
      0. 0. 0. 0. 0. 0. 0. 0. 0. 0. 0. 0. 0. 0. 0. 0. 0. 0. 0. 0. 0. 0.
      0. 0. 0. 0. 0. 0. 0. 0. 0. 0. 0. 0. 0. 0. 0. 0. 0. 2.05502397e-06
      5.75026297e-06 5.75026297e-06 3.78774780e-06 3.78774780e-06
      3.33639463e-07 2.05779975e-06 2.05779975e-06 1.96529118e-06
      3.11969143e-06 2.87856051e-06 -4.53245036e-07 -4.53245036e-07
      -2.38945927e-06 1.63099287e-06 1.63099287e-06 1.63099287e-06
      7.25143536e-07 1.04628498e-05 8.17661567e-06 2.05581978e-06
      2.05581978e-06 2.05581978e-06 2.05581978e-06 2.05581978e-06
      8.17661567e-06 8.17661567e-06 8.17661567e-06 8.17661567e-06
      1.18718544e-05 1.18718544e-05 1.32208907e-05 1.95135690e-05
      1.95135690e-05 1.39983122e-05 1.39983122e-05 1.39983122e-05
      1.84796882e-05 1.84796882e-05 1.50756287e-05 1.08379736e-05
      1.04628498e-05 1.04628498e-05 2.28623389e-06 0. 0. 0. 0. 0. 0. 0.
      0. 0. 0. 0. 0. 0. 0. 0. 0. 0. 0. 0. 0. 0. 0. 0. 0. 0. 0. 0. 0. 0.
      0. 0. 0. 0. 0. 0. 0. 0. 0. 0. 0. 0. 0. 0. 0. 0. 0. 0. 0. 0. 0. 0.
      0. 0. 0. 0. 2.05502397e-06 5.75026297e-06 5.75026297e-06
      5.75026297e-06 3.78774780e-06 3.78774780e-06 1.68267582e-06
      2.05779975e-06 2.77582535e-09 8.48917989e-06 -5.75547745e-07
      2.87856051e-06 -4.53245036e-07 -2.38945927e-06 -3.73849571e-06
      1.63099287e-06 1.63099287e-06 5.19482955e-06 8.52663470e-06
      8.17661567e-06 8.17661567e-06 2.05581978e-06 -1.27598571e-06
      -1.27598571e-06 -1.27598571e-06 -1.27598571e-06 4.84480961e-06
      4.84480961e-06 4.84480961e-06 4.84480961e-06 8.54004884e-06
      8.54004884e-06 1.71246995e-06 8.00514863e-06 1.13369542e-05
      1.39983122e-05 1.39983122e-05 1.39983122e-05 1.84796882e-05
      1.84796882e-05 1.50756287e-05 1.08379736e-05 1.04628498e-05
      1.04628498e-05 1.04628498e-05 0. 0. 0. 0. 0. 0. 0. 0. 0. 0. 0. 0.
      0. 0. 0. 0. 0. 0. 0. 0. 0. 0. 0. 0. 0. 0. 0. 0. 0. 0. 0. 0. 0. 0.
      0. 0. 0. 0. 0. 0. 0. 0. 0. 0. 0. 0. 0. 0. 0. 0. 0. 0. 0. 0. 0.
      2.05502397e-06 5.75026297e-06 5.75026297e-06 5.75026297e-06
      3.78774780e-06 3.78774780e-06 2.05779975e-06 2.05779975e-06
      6.52666495e-06 4.79394066e-06 -5.75547745e-07 2.87856051e-06
      -4.53245036e-07 -3.73849571e-06 -3.73849571e-06 1.63099287e-06
      9.43248415e-06 5.19482955e-06 6.24040104e-06 8.17661567e-06
      4.84480961e-06 -1.27598571e-06 -1.27598571e-06 -1.27598571e-06
      -1.27598571e-06 -1.27598571e-06 4.84480961e-06 4.84480961e-06
      4.84480961e-06 -3.33180560e-06 3.63433543e-07 3.63433543e-07
      1.71246995e-06 8.00514863e-06 8.00514863e-06 1.06665066e-05
      1.39983122e-05 1.39983122e-05 1.84796882e-05 1.71306529e-05
      1.50756287e-05 1.08379736e-05 1.04628498e-05 1.04628498e-05
      1.04628498e-05 0. 0. 0. 0. 0. 0. 0. 0. 0. 0. 0. 0. 0. 0. 0. 0. 0.
      0. 0. 0. 0. 0. 0. 0. 0. 0. 0. 0. 0. 0. 0. 0. 0. 0. 0. 0. 0. 0. 0.
      0. 0. 0. 0. 0. 0. 0. 0. 0. 0. 0. 0. 0. 0. 0. 2.05502397e-06
      2.05502397e-06 5.75026297e-06 5.75026297e-06 5.75026297e-06
      3.78774780e-06 4.16287185e-06 2.05779975e-06 2.28900990e-06
      2.83142572e-06 4.79394066e-06 -5.75547745e-07 2.87856051e-06
      -4.53245036e-07 -3.73849571e-06 -4.11361953e-06 9.43248415e-06
      5.19482955e-06 2.90859543e-06 6.24040104e-06 4.84480961e-06
      4.84480961e-06 -1.27598571e-06 -1.27598571e-06 -1.27598571e-06
      -1.27598571e-06 -1.27598571e-06 4.84480961e-06 -3.33180560e-06
      -3.33180560e-06 -3.33180560e-06 3.63433543e-07 1.71246995e-06
      1.71246995e-06 8.00514863e-06 8.00514863e-06 1.06665066e-05
      1.06665066e-05 1.06665066e-05 1.84796882e-05 1.71306529e-05
      1.50756287e-05 1.08379736e-05 1.04628498e-05 1.04628498e-05
      1.04628498e-05 8.17661567e-06 0. 0. 0. 0. 0. 0. 0. 0. 0. 0. 0. 0.
      0. 0. 0. 0. 0. 0. 0. 0. 0. 0. 0. 0. 0. 0. 0. 0. 0. 0. 0. 0. 0. 0.
      0. 0. 0. 0. 0. 0. 0. 0. 0. 0. 0. 0. 0. 0. 0. 0. 0. 0. 0.
      2.05502397e-06 5.75026297e-06 5.75026297e-06 5.75026297e-06
      5.75026297e-06 3.78774780e-06 5.51190806e-06 2.77582535e-09
      6.52666495e-06 2.83142572e-06 4.79394066e-06 -5.75547745e-07
      2.87856051e-06 -1.80228142e-06 4.06299569e-06 4.06299569e-06
      5.19482955e-06 2.90859543e-06 2.90859543e-06 2.90859543e-06
      4.84480961e-06 4.84480961e-06 -1.27598571e-06 -1.27598571e-06
      -1.27598571e-06 -1.27598571e-06 -9.45260126e-06 -3.33180560e-06
      -3.33180560e-06 -3.33180560e-06 -3.33180560e-06 3.63433543e-07
      1.71246995e-06 1.71246995e-06 8.00514863e-06 8.00514863e-06
      1.06665066e-05 1.06665066e-05 1.06665066e-05 1.51478826e-05
      1.71306529e-05 1.08379736e-05 1.08379736e-05 1.04628498e-05
      1.04628498e-05 1.04628498e-05 8.17661567e-06 0. 0. 0. 0. 0. 0. 0.
      0. 0. 0. 0. 0. 0. 0. 0. 0. 0. 0. 0. 0. 0. 0. 0. 0. 0. 0. 0. 0. 0.
      0. 0. 0. 0. 0. 0. 0. 0. 0. 0. 0. 0. 0. 0. 0. 0. 0. 0. 0. 0. 0. 0.
      0. 2.05502397e-06 2.05502397e-06 5.75026297e-06 5.75026297e-06
      5.75026297e-06 5.75026297e-06 4.16287185e-06 5.51190806e-06
      2.28900990e-06 2.83142572e-06 2.83142572e-06 4.79394066e-06
      -5.75547745e-07 -5.75547745e-07 5.99920986e-06 4.06299569e-06
      -1.74659164e-07 2.90859543e-06 2.90859543e-06 -2.46089326e-06
      -2.46089326e-06 -5.24678853e-07 -5.24678853e-07 -6.64547451e-06
      -6.64547451e-06 -6.64547451e-06 -1.48220897e-05 -1.48220897e-05
      -8.70129406e-06 -8.70129406e-06 -8.70129406e-06 -8.70129406e-06
      3.63433543e-07 1.71246995e-06 1.71246995e-06 8.00514863e-06
      8.00514863e-06 1.06665066e-05 1.06665066e-05 1.06665066e-05
      1.37988463e-05 1.37988463e-05 1.08379736e-05 1.04628498e-05
      1.04628498e-05 1.04628498e-05 1.04628498e-05 8.17661567e-06 0. 0.
      0. 0. 0. 0. 0. 0. 0. 0. 0. 0. 0. 0. 0. 0. 0. 0. 0. 0. 0. 0. 0. 0.
      0. 0. 0. 0. 0. 0. 0. 0. 0. 0. 0. 0. 0. 0. 0. 0. 0. 0. 0. 0. 0. 0.
      0. 0. 0. 0. 0. 0. 2.05502397e-06 5.75026297e-06 5.75026297e-06
      5.75026297e-06 5.75026297e-06 6.12538679e-06 5.51190806e-06
      5.74311798e-06 2.83142572e-06 2.83142572e-06 2.83142572e-06
      4.79394066e-06 -5.75547745e-07 5.87690738e-06 5.99920986e-06
      4.06299569e-06 -2.46089326e-06 -2.46089326e-06 -2.46089326e-06
      -2.46089326e-06 -2.46089326e-06 -5.24678853e-07 -5.24678853e-07
      -6.64547451e-06 -1.48220897e-05 -1.48220897e-05 -1.48220897e-05
      -1.48220897e-05 -5.36948846e-06 -5.36948846e-06 -5.36948846e-06
      -8.70129406e-06 -5.00605529e-06 -3.65701862e-06 5.80636254e-07
      8.00514863e-06 8.00514863e-06 1.06665066e-05 1.06665066e-05
      1.88431222e-05 1.37988463e-05 9.56119129e-06 7.50616755e-06
      7.13104373e-06 1.04628498e-05 1.04628498e-05 1.04628498e-05
      8.17661567e-06 0. 0. 0. 0. 0. 0. 0. 0. 0. 0. 0. 0. 0. 0. 0. 0. 0.
      0. 0. 0. 0. 0. 0. 0. 0. 0. 0. 0. 0. 0. 0. 0. 0. 0. 0. 0. 0. 0. 0.
      0. 0. 0. 0. 0. 0. 0. 0. 0. 0. 0. 0. 0. 2.05502397e-06
      5.75026297e-06 5.75026297e-06 5.75026297e-06 5.75026297e-06
      6.12538679e-06 5.51190806e-06 5.74311798e-06 2.83142572e-06
      2.83142572e-06 2.83142572e-06 -5.75547745e-07 7.60106741e-06
      5.87690738e-06 9.33101546e-06 -2.46089326e-06 -2.46089326e-06
      -2.46089326e-06 -2.46089326e-06 -2.46089326e-06 -2.46089326e-06
      -5.24678853e-07 -5.24678853e-07 -1.48220897e-05 -1.48220897e-05
      -1.48220897e-05 -1.48220897e-05 -1.14902841e-05 -5.36948846e-06
      -5.36948846e-06 -5.36948846e-06 -5.36948846e-06 -1.67424946e-06
      -3.65701862e-06 5.80636254e-07 2.63566017e-06 2.63566017e-06
      1.06665066e-05 1.06665066e-05 1.51478826e-05 1.37988463e-05
      7.50616755e-06 7.50616755e-06 7.13104373e-06 7.13104373e-06
      1.04628498e-05 1.04628498e-05 8.17661567e-06 0. 0. 0. 0. 0. 0. 0.
      0. 0. 0. 0. 0. 0. 0. 0. 0. 0. 0. 0. 0. 0. 0. 0. 0. 0. 0. 0. 0. 0.
      0. 0. 0. 0. 0. 0. 0. 0. 0. 0. 0. 0. 0. 0. 0. 0. 0. 0. 0. 0. 0. 0.
      2.05502397e-06 2.05502397e-06 5.75026297e-06 5.75026297e-06
      5.75026297e-06 6.12538679e-06 6.12538679e-06 5.74311798e-06
      6.28553380e-06 2.83142572e-06 2.83142572e-06 2.83142572e-06
      -5.75547745e-07 5.87690738e-06 5.87690738e-06 7.04478180e-06
      -2.46089326e-06 -2.46089326e-06 -2.46089326e-06 -2.46089326e-06
      -2.46089326e-06 -2.48719402e-06 -1.06638099e-05 -1.06638099e-05
      -1.67846047e-05 -1.67846047e-05 -1.34527991e-05 -1.34527991e-05
      -1.14902841e-05 -5.36948846e-06 -5.36948846e-06 -5.36948846e-06
      -5.36948846e-06 -3.25213108e-07 3.91244203e-06 3.91244203e-06
      2.63566017e-06 4.92189429e-06 5.29701811e-06 1.06665066e-05
      1.37988463e-05 1.37988463e-05 7.50616755e-06 7.50616755e-06
      7.13104373e-06 7.13104373e-06 7.13104373e-06 1.04628498e-05
      8.17661567e-06 0. 0. 0. 0. 0. 0. 0. 0. 0. 0. 0. 0. 0. 0. 0. 0. 0.
      0. 0. 0. 0. 0. 0. 0. 0. 0. 0. 0. 0. 0. 0. 0. 0. 0. 0. 0. 0. 0. 0.
      0. 0. 0. 0. 0. 0. 0. 0. 0. 0. 0. 0. 2.05502397e-06 2.05502397e-06
      5.75026297e-06 5.75026297e-06 6.12538679e-06 6.12538679e-06
      7.47442346e-06 5.74311798e-06 6.28553380e-06 2.83142572e-06
      2.83142572e-06 2.83142572e-06 7.22594359e-06 5.87690738e-06
      3.59067349e-06 2.80712675e-06 -2.46089326e-06 -4.42340843e-06
      -4.42340843e-06 -4.42340843e-06 -4.42340843e-06 -1.06638099e-05
      -1.06638099e-05 -1.06638099e-05 -1.67846047e-05 -1.67846047e-05
      -1.34527991e-05 -1.34527991e-05 -1.34527991e-05 -7.33200386e-06
      -7.33200386e-06 -7.33200386e-06 -7.33200386e-06 -3.25213108e-07
      3.91244203e-06 5.96746577e-06 5.96746577e-06 8.25369989e-06
      5.29701811e-06 5.29701811e-06 1.37988463e-05 9.56119129e-06
      7.50616755e-06 7.50616755e-06 7.13104373e-06 7.13104373e-06
      7.13104373e-06 1.04628498e-05 8.17661567e-06 0. 0. 0. 0. 0. 0. 0.
      0. 0. 0. 0. 0. 0. 0. 0. 0. 0. 0. 0. 0. 0. 0. 0. 0. 0. 0. 0. 0. 0.
      0. 0. 0. 0. 0. 0. 0. 0. 0. 0. 0. 0. 0. 0. 0. 0. 0. 0. 0. 0. 0.
      2.05502397e-06 2.05502397e-06 5.75026297e-06 5.75026297e-06
      5.75026297e-06 6.12538679e-06 6.12538679e-06 7.70563383e-06
      9.98077303e-06 6.28553380e-06 2.83142572e-06 2.83142572e-06
      2.83142572e-06 7.22594359e-06 5.87690738e-06 -6.46981562e-07
      8.44611520e-07 -4.42340843e-06 -4.42340843e-06 -4.42340843e-06
      -4.42340843e-06 -1.26000241e-05 -1.06638099e-05 -1.06638099e-05
      -1.26000241e-05 -1.33513304e-05 -1.00195248e-05 -1.00195248e-05
      -1.00195248e-05 -1.00195248e-05 -9.26821849e-06 -9.26821849e-06
      -9.26821849e-06 -7.91918137e-06 1.37122829e-08 1.97622762e-06
      4.03125159e-06 4.03125159e-06 8.25369989e-06 8.62882371e-06
      3.94798144e-06 8.42935788e-06 9.56119129e-06 9.56119129e-06
      7.50616755e-06 7.13104373e-06 7.13104373e-06 7.13104373e-06
      7.13104373e-06 8.17661567e-06 0. 0. 0. 0. 0. 0. 0. 0. 0. 0. 0. 0.
      0. 0. 0. 0. 0. 0. 0. 0. 0. 0. 0. 0. 0. 0. 0. 0. 0. 0. 0. 0. 0. 0.
      0. 0. 0. 0. 0. 0. 0. 0. 0. 0. 0. 0. 0. 0. 0. 0. 2.05502397e-06
      2.05502397e-06 5.75026297e-06 5.75026297e-06 6.12538679e-06
      6.12538679e-06 6.12538679e-06 7.70563383e-06 6.28553380e-06
      6.28553380e-06 6.28553380e-06 2.83142572e-06 1.06329171e-05
      5.87690738e-06 3.59067349e-06 -2.60949673e-06 8.44611520e-07
      -4.42340843e-06 -4.42340843e-06 -4.42340843e-06 -1.26000241e-05
      -1.26000241e-05 -1.26000241e-05 -7.23053518e-06 -7.23053518e-06
      -1.33513304e-05 -1.00195248e-05 -1.00195248e-05 -1.00195248e-05
      -1.00195248e-05 -3.89872957e-06 -3.89872957e-06 -7.91918137e-06
      -3.68152678e-06 1.37122829e-08 2.06873619e-06 4.03125159e-06
      4.03125159e-06 6.31748526e-06 8.62882371e-06 1.17611635e-05
      8.42935788e-06 4.19170283e-06 9.56119129e-06 7.50616755e-06
      7.13104373e-06 7.13104373e-06 7.13104373e-06 7.13104373e-06
      4.84480961e-06 0. 0. 0. 0. 0. 0. 0. 0. 0. 0. 0. 0. 0. 0. 0. 0. 0.
      0. 0. 0. 0. 0. 0. 0. 0. 0. 0. 0. 0. 0. 0. 0. 0. 0. 0. 0. 0. 0. 0.
      0. 0. 0. 0. 0. 0. 0. 0. 0. 0. 0. 2.05502397e-06 2.05502397e-06
      5.75026297e-06 5.75026297e-06 6.12538679e-06 6.12538679e-06
      7.70563383e-06 7.70563383e-06 6.28553380e-06 6.28553380e-06
      6.28553380e-06 1.06329171e-05 1.06329171e-05 3.59067349e-06
      -2.60949673e-06 -2.60949673e-06 8.44611520e-07 -4.42340843e-06
      -4.42340843e-06 -1.26000241e-05 -1.26000241e-05 -7.23053518e-06
      -7.23053518e-06 -7.23053518e-06 -7.23053518e-06 -1.00195248e-05
      -1.00195248e-05 -1.00195248e-05 -1.00195248e-05 -1.00195248e-05
      -3.89872957e-06 -3.89872957e-06 1.68796180e-06 1.68796180e-06
      1.37122829e-08 2.06873619e-06 4.03125159e-06 4.03125159e-06
      6.31748526e-06 6.69260953e-06 1.17611635e-05 1.17611635e-05
      4.19170283e-06 9.56119129e-06 7.50616755e-06 7.13104373e-06
      7.13104373e-06 7.13104373e-06 7.13104373e-06 -3.33180560e-06 0. 0.
      0. 0. 0. 0. 0. 0. 0. 0. 0. 0. 0. 0. 0. 0. 0. 0. 0. 0. 0. 0. 0. 0.
      0. 0. 0. 0. 0. 0. 0. 0. 0. 0. 0. 0. 0. 0. 0. 0. 0. 0. 0. 0. 0. 0.
      0. 0. 0. 2.05502397e-06 2.05502397e-06 2.05502397e-06
      5.75026297e-06 5.75026297e-06 6.12538679e-06 6.12538679e-06
      7.70563383e-06 1.19432880e-05 6.28553380e-06 6.28553380e-06
      6.28553380e-06 1.06329171e-05 1.06329171e-05 1.62815809e-06
      -2.60949673e-06 -2.60949673e-06 8.44611520e-07 -4.42340843e-06
      -4.42340843e-06 -1.26000241e-05 -7.23053518e-06 -7.23053518e-06
      -7.23053518e-06 -7.23053518e-06 -7.23053518e-06 -1.00195248e-05
      -1.00195248e-05 -1.00195248e-05 -1.00195248e-05 -1.00195248e-05
      -3.89872957e-06 -2.54969314e-06 1.68796180e-06 1.68796180e-06
      7.43822466e-06 7.43822466e-06 2.06873619e-06 4.03125159e-06
      6.69260953e-06 6.69260953e-06 9.82494930e-06 1.17611635e-05
      7.52350843e-06 4.19170283e-06 7.50616755e-06 7.13104373e-06
      7.13104373e-06 7.13104373e-06 7.13104373e-06 -3.33180560e-06
      -3.33180560e-06 0. 0. 0. 0. 0. 0. 0. 0. 0. 0. 0. 0. 0. 0. 0. 0. 0.
      0. 0. 0. 0. 0. 0. 0. 0. 0. 0. 0. 0. 0. 0. 0. 0. 0. 0. 0. 0. 0. 0.
      0. 0. 0. 0. 0. 0. 0. 0. 0. 2.05502397e-06 2.05502397e-06
      2.05502397e-06 5.75026297e-06 6.12538679e-06 6.12538679e-06
      8.41162091e-06 7.70563383e-06 8.24804920e-06 6.28553380e-06
      6.28553380e-06 5.91040998e-06 1.06329171e-05 6.99764678e-06
      1.62815809e-06 -2.60949673e-06 -2.60949673e-06 8.44611520e-07
      -4.42340843e-06 -1.26000241e-05 -7.23053518e-06 -7.23053518e-06
      -7.23053518e-06 -7.23053518e-06 -5.26801978e-06 -5.26801978e-06
      -8.05700984e-06 -8.05700984e-06 -8.05700984e-06 -8.05700984e-06
      -1.00195248e-05 -2.54969314e-06 1.68796180e-06 1.68796180e-06
      5.38320091e-06 7.43822466e-06 7.43822466e-06 2.06873619e-06
      2.06873619e-06 6.69260953e-06 6.69260953e-06 9.82494930e-06
      9.82494930e-06 7.52350843e-06 7.52350843e-06 7.50616755e-06
      7.13104373e-06 7.13104373e-06 7.13104373e-06 7.13104373e-06
      -3.33180560e-06 -3.33180560e-06 -3.33180560e-06 0. 0. 0. 0. 0. 0.
      0. 0. 0. 0. 0. 0. 0. 0. 0. 0. 0. 0. 0. 0. 0. 0. 0. 0. 0. 0. 0. 0.
      0. 0. 0. 0. 0. 0. 0. 0. 0. 0. 0. 0. 0. 0. 0. 0. 0. 0. 0.
      2.05502397e-06 2.05502397e-06 5.75026297e-06 5.75026297e-06
      6.12538679e-06 6.12538679e-06 6.35659717e-06 7.70563383e-06
      8.24804920e-06 6.28553380e-06 6.28553380e-06 5.91040998e-06
      1.06329171e-05 6.99764678e-06 -2.60949673e-06 -2.60949673e-06
      -2.60949673e-06 8.44611520e-07 -1.26000241e-05 -1.26000241e-05
      -7.23053518e-06 -7.23053518e-06 -5.26801978e-06 -5.26801978e-06
      -5.26801978e-06 -5.26801978e-06 -8.05700984e-06 -8.05700984e-06
      -8.05700984e-06 -8.05700984e-06 -6.12079566e-06 -2.49661935e-06
      -2.49661935e-06 -2.49661935e-06 1.31742934e-06 1.31742934e-06
      7.43822466e-06 7.43822466e-06 2.06873619e-06 4.73009413e-06
      1.11739855e-05 9.82494930e-06 9.82494930e-06 5.58729425e-06
      7.52350843e-06 1.28929969e-05 7.13104373e-06 7.13104373e-06
      7.13104373e-06 7.13104373e-06 -3.33180560e-06 -3.33180560e-06
      -3.33180560e-06 0. 0. 0. 0. 0. 0. 0. 0. 0. 0. 0. 0. 0. 0. 0. 0. 0.
      0. 0. 0. 0. 0. 0. 0. 0. 0. 0. 0. 0. 0. 0. 0. 0. 0. 0. 0. 0. 0. 0.
      0. 0. 0. 0. 0. 0. 0. 0. 2.05502397e-06 2.05502397e-06
      5.75026297e-06 6.12538679e-06 6.12538679e-06 8.41162091e-06
      7.70563383e-06 7.70563383e-06 8.24804920e-06 6.28553380e-06
      5.91040998e-06 5.91040998e-06 8.34668299e-06 6.99764678e-06
      -2.60949673e-06 -2.60949673e-06 -2.60949673e-06 8.44611520e-07
      -1.26000241e-05 -1.26000241e-05 -7.23053518e-06 -5.26801978e-06
      -5.26801978e-06 -5.26801978e-06 -5.26801978e-06 -5.39032271e-06
      -1.15111179e-05 -1.15111179e-05 -9.57490374e-06 -9.57490374e-06
      -3.98821248e-06 -3.98821248e-06 -5.95072788e-06 -5.95072788e-06
      -2.00464711e-07 -2.13667909e-06 -2.13667909e-06 -2.13667909e-06
      4.35924039e-06 4.73009413e-06 9.82494930e-06 9.82494930e-06
      9.82494930e-06 5.58729425e-06 7.52350843e-06 1.28929969e-05
      7.13104373e-06 7.13104373e-06 7.13104373e-06 -3.33180560e-06
      -3.33180560e-06 -3.33180560e-06 -3.33180560e-06 0. 0. 0. 0. 0. 0.
      0. 0. 0. 0. 0. 0. 0. 0. 0. 0. 0. 0. 0. 0. 0. 0. 0. 0. 0. 0. 0. 0.
      0. 0. 0. 0. 0. 0. 0. 0. 0. 0. 0. 0. 0. 0. 0. 0. 0. 0. 0.
      2.05502397e-06 2.05502397e-06 5.75026297e-06 6.12538679e-06
      6.12538679e-06 8.41162091e-06 7.70563383e-06 7.70563383e-06
      8.24804920e-06 6.28553380e-06 5.91040998e-06 5.91040998e-06
      6.99764678e-06 6.99764678e-06 -2.60949673e-06 -2.60949673e-06
      -2.60949673e-06 -7.33200386e-06 -1.26000241e-05 -1.26000241e-05
      -5.26801978e-06 -5.26801978e-06 -8.72212786e-06 -8.72212786e-06
      -8.72212786e-06 -5.39032271e-06 -1.15111179e-05 -9.57490374e-06
      -9.57490374e-06 -3.98821248e-06 -3.98821248e-06 -3.98821248e-06
      -3.98821248e-06 -2.00464711e-07 -2.00464711e-07 -2.00464711e-07
      -2.13667909e-06 -2.13667909e-06 -1.76155515e-06 -4.84480961e-06
      7.86243436e-06 9.82494930e-06 9.82494930e-06 9.82494930e-06
      5.58729425e-06 1.28929969e-05 1.04628498e-05 7.13104373e-06
      7.13104373e-06 -3.33180560e-06 -3.33180560e-06 -3.33180560e-06
      -3.33180560e-06 -3.33180560e-06 0. 0. 0. 0. 0. 0. 0. 0. 0. 0. 0.
      0. 0. 0. 0. 0. 0. 0. 0. 0. 0. 0. 0. 0. 0. 0. 0. 0. 0. 0. 0. 0. 0.
      0. 0. 0. 0. 0. 0. 0. 0. 0. 0. 0. 0. 0. 2.05502397e-06
      2.05502397e-06 5.75026297e-06 6.12538679e-06 6.12538679e-06
      6.35659717e-06 7.70563383e-06 7.70563383e-06 8.24804920e-06
      5.91040998e-06 5.91040998e-06 3.62417609e-06 6.99764678e-06
      2.75999173e-06 -2.60949673e-06 -2.60949673e-06 -2.60949673e-06
      8.44611520e-07 -1.26000241e-05 -1.40916172e-05 -8.72212786e-06
      -8.72212786e-06 -8.72212786e-06 -8.72212786e-06 -8.72212786e-06
      -5.39032271e-06 -9.57490374e-06 -9.57490374e-06 -8.22586753e-06
      -3.98821248e-06 -3.98821248e-06 -3.98821248e-06 -1.93318851e-06
      -2.00464711e-07 -2.00464711e-07 -2.00464711e-07 -2.00464711e-07
      -5.99920986e-06 -1.76155515e-06 5.24678853e-07 1.74163836e-06
      9.82494930e-06 9.82494930e-06 9.82494930e-06 5.58729425e-06
      7.52350843e-06 1.04628498e-05 7.13104373e-06 7.13104373e-06
      -3.33180560e-06 -3.33180560e-06 -3.33180560e-06 -3.33180560e-06
      -3.33180560e-06 0. 0. 0. 0. 0. 0. 0. 0. 0. 0. 0. 0. 0. 0. 0. 0. 0.
      0. 0. 0. 0. 0. 0. 0. 0. 0. 0. 0. 0. 0. 0. 0. 0. 0. 0. 0. 0. 0. 0.
      0. 0. 0. 0. 0. 0. 0. 2.05502397e-06 2.05502397e-06 6.12538679e-06
      6.12538679e-06 6.12538679e-06 6.35659717e-06 7.70563383e-06
      7.70563383e-06 8.24804920e-06 5.91040998e-06 5.91040998e-06
      3.62417609e-06 6.99764678e-06 2.75999173e-06 -2.60949673e-06
      -2.60949673e-06 -2.60949673e-06 8.44611520e-07 -7.87751651e-06
      -8.72212786e-06 -8.72212786e-06 -8.72212786e-06 -8.72212786e-06
      -8.72212786e-06 -8.72212786e-06 -5.39032271e-06 -9.57490374e-06
      -9.57490374e-06 -3.98821248e-06 -3.98821248e-06 -3.98821248e-06
      -1.93318851e-06 -1.93318851e-06 1.76205060e-06 -2.00464711e-07
      -2.00464711e-07 -4.43811950e-06 -4.06299569e-06 -1.76155515e-06
      6.64627032e-06 -1.71246995e-06 -1.71246995e-06 6.37084077e-06
      6.37084077e-06 5.58729425e-06 5.58729425e-06 1.25178731e-05
      1.04628498e-05 -1.04557159e-06 -3.33180560e-06 -3.33180560e-06
      -3.33180560e-06 -3.33180560e-06 -3.33180560e-06 0. 0. 0. 0. 0. 0.
      0. 0. 0. 0. 0. 0. 0. 0. 0. 0. 0. 0. 0. 0. 0. 0. 0. 0. 0. 0. 0. 0.
      0. 0. 0. 0. 0. 0. 0. 0. 0. 0. 0. 0. 0. 0. 0. 0. 0. 0.
      2.05502397e-06 2.05502397e-06 6.12538679e-06 6.12538679e-06
      6.12538679e-06 6.35659717e-06 7.70563383e-06 7.70563383e-06
      8.24804920e-06 7.87292538e-06 5.91040998e-06 3.62417609e-06
      6.99764678e-06 6.99764678e-06 -2.60949673e-06 -2.60949673e-06
      -2.60949673e-06 -2.60949673e-06 -7.87751651e-06 -5.45512819e-07
      -5.45512819e-07 -8.72212786e-06 -8.72212786e-06 -8.72212786e-06
      -8.72212786e-06 -5.39032271e-06 -9.57490374e-06 -3.98821248e-06
      -3.98821248e-06 -3.98821248e-06 -3.98821248e-06 -1.93318851e-06
      1.76205060e-06 1.76205060e-06 1.76205060e-06 -2.00464711e-07
      -4.43811950e-06 4.11361953e-06 8.35127503e-06 6.64627032e-06
      -3.76749381e-06 -1.71246995e-06 2.50045332e-07 6.37084077e-06
      2.13318594e-06 5.58729425e-06 1.25178731e-05 1.04628498e-05
      -3.33180560e-06 -3.33180560e-06 -3.33180560e-06 -3.33180560e-06
      -3.33180560e-06 -3.33180560e-06 0. 0. 0. 0. 0. 0. 0. 0. 0. 0. 0.
      0. 0. 0. 0. 0. 0. 0. 0. 0. 0. 0. 0. 0. 0. 0. 0. 0. 0. 0. 0. 0. 0.
      0. 0. 0. 0. 0. 0. 0. 0. 0. 0. 0. 0. 0. 2.05502397e-06
      2.05502397e-06 6.12538679e-06 6.12538679e-06 6.12538679e-06
      6.35659717e-06 7.70563383e-06 4.01039415e-06 7.87292538e-06
      7.87292538e-06 3.62417609e-06 2.27513965e-06 6.99764678e-06
      6.99764678e-06 -2.60949673e-06 -2.60949673e-06 -2.60949673e-06
      -2.60949673e-06 -5.91500157e-06 -5.91500157e-06 -5.45512819e-07
      -5.45512819e-07 -8.72212786e-06 -8.72212786e-06 -8.72212786e-06
      -3.45410831e-06 -3.98821248e-06 -3.98821248e-06 -3.98821248e-06
      -3.98821248e-06 -1.93318851e-06 -1.93318851e-06 7.88284615e-06
      1.76205060e-06 1.76205060e-06 -4.43811950e-06 4.11361953e-06
      4.11361953e-06 2.05859578e-06 8.58248495e-06 -3.76749381e-06
      -1.71246995e-06 -1.71246995e-06 2.50045332e-07 2.13318594e-06
      2.13318594e-06 7.50267463e-06 4.34125786e-06 0. -3.33180560e-06
      -3.33180560e-06 -3.33180560e-06 -3.33180560e-06 -3.33180560e-06 0.
      0. 0. 0. 0. 0. 0. 0. 0. 0. 0. 0. 0. 0. 0. 0. 0. 0. 0. 0. 0. 0. 0.
      0. 0. 0. 0. 0. 0. 0. 0. 0. 0. 0. 0. 0. 0. 0. 0. 0. 0. 0. 0. 0. 0.
      0. 2.05502397e-06 2.05502397e-06 6.12538679e-06 6.12538679e-06
      8.41162091e-06 6.35659717e-06 7.70563383e-06 4.01039415e-06
      7.87292538e-06 7.87292538e-06 3.62417609e-06 2.27513965e-06
      6.99764678e-06 6.99764678e-06 1.62815809e-06 -2.60949673e-06
      -2.60949673e-06 -2.60949673e-06 -5.91500157e-06 -5.91500157e-06
      -5.45512819e-07 -5.45512819e-07 -5.45512819e-07 -5.45512819e-07
      -8.72212786e-06 2.13258295e-06 -5.34104174e-07 -5.34104174e-07
      -3.98821248e-06 6.24342692e-06 6.24342692e-06 9.93866615e-06
      1.60594609e-05 1.60594609e-05 1.04727706e-05 6.07613492e-06
      4.11361953e-06 2.05859578e-06 2.05859578e-06 8.58248495e-06
      -3.76749381e-06 -1.71246995e-06 -1.71246995e-06 2.50045332e-07
      6.37084077e-06 2.13318594e-06 -6.73940860e-07 4.34125786e-06 0.
      -3.33180560e-06 -3.33180560e-06 -3.33180560e-06 -3.33180560e-06
      -3.33180560e-06 0. 0. 0. 0. 0. 0. 0. 0. 0. 0. 0. 0. 0. 0. 0. 0. 0.
      0. 0. 0. 0. 0. 0. 0. 0. 0. 0. 0. 0. 0. 0. 0. 0. 0. 0. 0. 0. 0. 0.
      0. 0. 0. 0. 0. 0. 0. 2.05502397e-06 2.05502397e-06 6.12538679e-06
      6.12538679e-06 8.41162091e-06 8.41162091e-06 7.70563383e-06
      4.01039415e-06 7.87292538e-06 7.87292538e-06 3.62417609e-06
      2.27513965e-06 -1.17896866e-06 6.99764678e-06 1.62815809e-06
      1.62815809e-06 -2.60949673e-06 -2.60949673e-06 -5.91500157e-06
      -5.91500157e-06 -5.45512819e-07 -5.45512819e-07 -5.45512819e-07
      3.69214217e-06 8.49528715e-06 1.37633069e-05 7.64251126e-06
      7.64251126e-06 6.24342692e-06 6.24342692e-06 6.24342692e-06
      9.93866615e-06 1.60594609e-05 1.04727706e-05 1.04727706e-05
      1.21969306e-05 6.07613492e-06 2.05859578e-06 2.05859578e-06
      8.58248495e-06 -3.76749381e-06 -1.71246995e-06 -1.71246995e-06
      2.50045332e-07 2.50045332e-07 -6.04342949e-06 -6.73940860e-07
      -1.39908445e-06 2.05502397e-06 -3.33180560e-06 -3.33180560e-06
      -3.33180560e-06 -3.33180560e-06 -3.33180560e-06 0. 0. 0. 0. 0. 0.
      0. 0. 0. 0. 0. 0. 0. 0. 0. 0. 0. 0. 0. 0. 0. 0. 0. 0. 0. 0. 0. 0.
      0. 0. 0. 0. 0. 0. 0. 0. 0. 0. 0. 0. 0. 0. 0. 0. 0. 0.
      2.05502397e-06 2.05502397e-06 6.12538679e-06 6.12538679e-06
      8.41162091e-06 8.41162091e-06 9.76065712e-06 3.63527033e-06
      7.87292538e-06 7.87292538e-06 3.62417609e-06 2.27513965e-06
      -1.17896866e-06 -1.17896866e-06 -6.54845735e-06 1.62815809e-06
      1.62815809e-06 -2.60949673e-06 -5.91500157e-06 -5.91500157e-06
      -5.45512819e-07 -5.45512819e-07 7.14625048e-06 8.49528715e-06
      1.04315013e-05 1.37633069e-05 9.69753546e-06 9.69753546e-06
      9.69753546e-06 9.69753546e-06 1.33927742e-05 1.33927742e-05
      1.81645337e-05 1.39268786e-05 1.43020025e-05 1.56510396e-05
      1.35960145e-05 5.51270386e-06 7.79893799e-06 8.58248495e-06
      -4.82243138e-07 -3.76749381e-06 -1.71246995e-06 -1.71246995e-06
      2.50045332e-07 -7.92657011e-06 -6.73940860e-07 -3.33529874e-06
      2.05502397e-06 -3.33180560e-06 -3.33180560e-06 -3.33180560e-06
      -3.33180560e-06 9.05849333e-07 4.23765505e-06 4.23765505e-06
      4.23765505e-06 4.23765505e-06 4.23765505e-06 0. 0. 0. 0. 0. 0. 0.
      0. 0. 0. 0. 0. 0. 0. 0. 0. 0. 0. 0. 0. 0. 0. 0. 0. 0. 0. 0. 0. 0.
      0. 0. 0. 0. 0. 0. 0. 0. 0. 0. 0. 0. 2.05502397e-06 2.05502397e-06
      6.12538679e-06 6.12538679e-06 8.41162091e-06 8.41162091e-06
      9.76065712e-06 3.63527033e-06 3.63527033e-06 7.87292538e-06
      3.62417609e-06 2.27513965e-06 -1.17896866e-06 -1.17896866e-06
      -6.54845735e-06 -6.54845735e-06 1.62815809e-06 1.62815809e-06
      -1.67734652e-06 -5.91500157e-06 3.69214217e-06 7.14625048e-06
      8.49528715e-06 8.49528715e-06 1.24865246e-05 1.58183302e-05
      9.69753546e-06 9.69753546e-06 9.69753546e-06 1.33927742e-05
      1.33927742e-05 1.81645337e-05 1.39268786e-05 1.43020025e-05
      1.43020025e-05 1.35960145e-05 1.35960145e-05 1.39197336e-05
      7.79893799e-06 1.20365930e-05 6.66710412e-06 -3.76749381e-06
      -1.71246995e-06 -1.71246995e-06 2.50045332e-07 -7.92657011e-06
      1.27748012e-06 -3.33529874e-06 -4.73088994e-06 -1.27678175e-06
      -3.33180560e-06 9.05849333e-07 9.05849333e-07 9.05849333e-07
      4.23765505e-06 4.23765505e-06 4.23765505e-06 4.23765505e-06
      4.23765505e-06 0. 0. 0. 0. 0. 0. 0. 0. 0. 0. 0. 0. 0. 0. 0. 0. 0.
      0. 0. 0. 0. 0. 0. 0. 0. 0. 0. 0. 0. 0. 0. 0. 0. 0. 0. 0. 0. 0. 0.
      0. 0. 2.05502397e-06 2.05502397e-06 6.12538679e-06 6.12538679e-06
      8.41162091e-06 8.41162091e-06 9.76065712e-06 9.38553330e-06
      3.63527033e-06 3.63527033e-06 3.62417609e-06 3.62417609e-06
      -1.17896866e-06 -1.17896866e-06 -6.54845735e-06 -6.54845735e-06
      -6.54845735e-06 -6.54845735e-06 -1.67734652e-06 -1.67734652e-06
      3.69214217e-06 8.49528715e-06 8.49528715e-06 1.05503104e-05
      1.24865246e-05 1.58183302e-05 9.69753546e-06 9.69753546e-06
      1.33927742e-05 1.33927742e-05 7.80608298e-06 1.39268786e-05
      1.43020025e-05 1.43020025e-05 1.22469783e-05 1.35960145e-05
      1.35960145e-05 1.58822495e-05 1.39197336e-05 2.42944930e-06
      6.66710412e-06 2.59674130e-06 -3.76749381e-06 -1.71246995e-06
      2.50045332e-07 -1.02128042e-05 -4.84331531e-06 9.02356248e-07
      -4.93235063e-07 2.96087319e-06 2.96087319e-06 9.05849333e-07
      9.05849333e-07 9.05849333e-07 4.23765505e-06 4.23765505e-06
      4.23765505e-06 4.23765505e-06 4.23765505e-06 0. 0. 0. 0. 0. 0. 0.
      0. 0. 0. 0. 0. 0. 0. 0. 0. 0. 0. 0. 0. 0. 0. 0. 0. 0. 0. 0. 0. 0.
      0. 0. 0. 0. 0. 0. 0. 0. 0. 0. 0. 0. 2.05502397e-06 2.05502397e-06
      6.12538679e-06 6.12538679e-06 8.41162091e-06 8.41162091e-06
      9.76065712e-06 9.76065712e-06 9.38553330e-06 3.63527033e-06
      1.67275505e-06 3.62417609e-06 1.70067750e-07 -1.17896866e-06
      -6.54845735e-06 -6.54845735e-06 -6.54845735e-06 -6.54845735e-06
      -9.85396218e-06 -3.28310136e-07 8.49528715e-06 1.05503104e-05
      1.05503104e-05 1.05503104e-05 1.24865246e-05 1.58183302e-05
      9.69753546e-06 1.33927742e-05 1.33927742e-05 9.15511919e-06
      7.80608298e-06 1.43020025e-05 1.43020025e-05 1.22469783e-05
      1.22469783e-05 1.35960145e-05 1.58822495e-05 7.70563383e-06
      5.74311798e-06 3.73629490e-07 6.29198030e-06 2.59674130e-06
      -3.76749381e-06 -1.71246995e-06 2.50045332e-07 -2.03618856e-06
      -4.84331531e-06 1.27748012e-06 -4.93235063e-07 2.96087319e-06
      2.96087319e-06 2.96087319e-06 2.96087319e-06 9.05849333e-07
      4.23765505e-06 4.23765505e-06 4.23765505e-06 4.23765505e-06
      4.23765505e-06 0. 0. 0. 0. 0. 0. 0. 0. 0. 0. 0. 0. 0. 0. 0. 0. 0.
      0. 0. 0. 0. 0. 0. 0. 0. 0. 0. 0. 0. 0. 0. 0. 0. 0. 0. 0. 0. 0. 0.
      0. 0. 0. 2.05502397e-06 6.12538679e-06 6.12538679e-06
      8.41162091e-06 8.41162091e-06 9.76065712e-06 9.76065712e-06
      9.38553330e-06 5.69029407e-06 3.72777890e-06 1.67275505e-06
      1.70067750e-07 -5.19942068e-06 -6.54845735e-06 -6.54845735e-06
      -6.54845735e-06 -5.17311992e-06 -8.50492597e-06 -6.44990178e-06
      2.37369545e-06 2.37369545e-06 2.37369545e-06 4.30990985e-06
      4.30990985e-06 7.64171546e-06 5.21615902e-06 5.21615902e-06
      9.78503977e-07 4.59142102e-09 4.59142102e-09 6.12538679e-06
      4.07036305e-06 4.07036305e-06 4.07036305e-06 7.70563383e-06
      7.70563383e-06 7.70563383e-06 3.73629490e-07 -1.49440116e-09
      6.29198030e-06 2.59674130e-06 1.03565083e-06 -3.76749381e-06
      2.50045332e-07 3.33329990e-06 -4.84331531e-06 -2.05432548e-06
      -4.93235063e-07 -4.93235063e-07 2.96087319e-06 2.96087319e-06
      2.96087319e-06 2.96087319e-06 4.23765505e-06 4.23765505e-06
      4.23765505e-06 4.23765505e-06 4.23765505e-06 0. 0. 0. 0. 0. 0. 0.
      0. 0. 0. 0. 0. 0. 0. 0. 0. 0. 0. 0. 0. 0. 0. 0. 0. 0. 0. 0. 0. 0.
      0. 0. 0. 0. 0. 0. 0. 0. 0. 0. 0. 0. 0. 0. 6.12538679e-06
      6.12538679e-06 6.12538679e-06 8.41162091e-06 9.76065712e-06
      9.76065712e-06 9.76065712e-06 9.38553330e-06 3.72777890e-06
      3.72777890e-06 2.73670679e-07 -3.14439694e-06 -5.19942068e-06
      -5.19942068e-06 -5.19942068e-06 -3.11809595e-06 -6.44990178e-06
      -2.99579324e-06 -2.99579324e-06 2.37369545e-06 2.37369545e-06
      4.30990985e-06 8.00514863e-06 1.13369542e-05 9.78503977e-07
      1.35362779e-06 4.59142102e-09 4.59142102e-09 -2.05043239e-06
      4.07036305e-06 4.07036305e-06 4.07036305e-06 6.35659717e-06
      2.66135794e-06 7.70563383e-06 7.70563383e-06 2.33614469e-06
      -1.49440116e-09 8.17512137e-06 2.59674130e-06 2.97186511e-06
      -3.76749381e-06 -1.80497852e-06 3.33329990e-06 -8.17512137e-06
      -2.05432548e-06 -4.93235063e-07 -4.93235063e-07 2.96087319e-06
      2.96087319e-06 2.96087319e-06 2.96087319e-06 6.29267879e-06
      6.29267879e-06 6.29267879e-06 4.23765505e-06 0. 0. 0. 0. 0. 0. 0.
      0. 0. 0. 0. 0. 0. 0. 0. 0. 0. 0. 0. 0. 0. 0. 0. 0. 0. 0. 0. 0. 0.
      0. 0. 0. 0. 0. 0. 0. 0. 0. 0. 0. 0. 0. 0. 0. 3.75123875e-07
      6.12538679e-06 6.12538679e-06 8.41162091e-06 8.41162091e-06
      9.76065712e-06 9.76065712e-06 9.76065712e-06 7.79814218e-06
      7.42301836e-06 2.73670679e-07 -5.09581787e-06 -3.14439694e-06
      -3.14439694e-06 -3.14439694e-06 -3.11809595e-06 -6.44990178e-06
      -2.99579324e-06 -2.99579324e-06 -2.99579324e-06 2.37369545e-06
      8.00514863e-06 8.00514863e-06 7.47442346e-06 1.35362779e-06
      4.59142102e-09 4.59142102e-09 -2.05043239e-06 -2.05043239e-06
      4.07036305e-06 6.35659717e-06 6.35659717e-06 2.66135794e-06
      2.66135794e-06 7.70563383e-06 2.33614469e-06 1.96102087e-06
      -1.49440116e-09 8.17512137e-06 2.05432548e-06 2.97186511e-06
      1.03565083e-06 -1.80497852e-06 1.49440116e-09 -8.17512137e-06
      -2.05432548e-06 -2.05432548e-06 -4.93235063e-07 -4.93235063e-07
      2.96087319e-06 2.96087319e-06 6.29267879e-06 6.29267879e-06
      6.29267879e-06 2.05502397e-06 2.05502397e-06 2.05502397e-06
      2.05502397e-06 2.05502397e-06 0. 0. 0. 0. 0. 0. 0. 0. 0. 0. 0. 0.
      0. 0. 0. 0. 0. 0. 0. 0. 0. 0. 0. 0. 0. 0. 0. 0. 0. 0. 0. 0. 0. 0.
      0. 0. 0. 0. 0. 0. 0. 3.75123875e-07 6.12538679e-06 6.12538679e-06
      8.41162091e-06 8.41162091e-06 8.41162091e-06 9.76065712e-06
      9.76065712e-06 7.79814218e-06 7.79814218e-06 3.96890982e-06
      -1.40057887e-06 -1.40057887e-06 -3.68681276e-06 -3.68681276e-06
      -3.66051177e-06 -3.53820906e-06 -3.53820906e-06 -3.53820906e-06
      -3.53820906e-06 -3.16308524e-06 4.14261785e-06 4.14261785e-06
      6.12538679e-06 4.59142102e-09 -2.05043239e-06 2.35801494e-07
      2.35801494e-07 2.35801494e-07 6.35659717e-06 6.35659717e-06
      2.66135794e-06 2.66135794e-06 2.66135794e-06 5.98147290e-06
      1.96102087e-06 1.96102087e-06 -1.49440116e-09 8.17512137e-06
      8.17512137e-06 -1.64091364e-06 -3.20200411e-06 -5.96746577e-06
      2.32704465e-07 -2.05352944e-06 -2.05432548e-06 -2.05432548e-06
      -4.93235063e-07 -4.93235063e-07 2.96087319e-06 2.96087319e-06
      2.05502397e-06 2.05502397e-06 2.05502397e-06 2.05502397e-06
      2.05502397e-06 2.05502397e-06 2.05502397e-06 2.05502397e-06
      2.05502397e-06 2.05502397e-06 2.05502397e-06 2.05502397e-06
      2.05502397e-06 2.05502397e-06 2.05502397e-06 2.05502397e-06
      2.05502397e-06 0. 0. 0. 0. 0. 0. 0. 0. 0. 0. 0. 0. 0. 0. 0. 0. 0.
      0. 0. 0. 0. 0. 0. 0. 0. 0. 0. 0. 0. 0. 0. 0. 0. 3.75123875e-07
      6.12538679e-06 6.12538679e-06 8.41162091e-06 8.41162091e-06
      8.41162091e-06 9.76065712e-06 7.79814218e-06 7.79814218e-06
      4.34403364e-06 -1.02545494e-06 -1.02545494e-06 -1.02545494e-06
      -1.02545494e-06 -9.99153940e-07 -3.16308524e-06 -3.16308524e-06
      -3.16308524e-06 -3.16308524e-06 -3.16308524e-06 -2.57590727e-06
      -2.89673324e-07 8.41162091e-06 2.35801494e-07 2.35801494e-07
      2.35801494e-07 2.35801494e-07 2.35801494e-07 2.66135794e-06
      2.66135794e-06 2.66135794e-06 2.66135794e-06 2.28623389e-06
      6.11984490e-07 1.96102087e-06 1.96102087e-06 -1.49440116e-09
      -1.49440116e-09 8.17512137e-06 2.05432548e-06 -6.53380948e-06
      -1.16432102e-06 -4.00495037e-06 -6.29118449e-06 -8.34700404e-06
      -6.29198030e-06 -4.73088994e-06 -4.73088994e-06 -1.27678175e-06
      2.05502397e-06 2.05502397e-06 2.05502397e-06 2.05502397e-06
      2.05502397e-06 2.05502397e-06 2.05502397e-06 2.05502397e-06
      2.05502397e-06 2.05502397e-06 2.05502397e-06 2.05502397e-06
      2.05502397e-06 2.05502397e-06 2.05502397e-06 2.05502397e-06
      2.05502397e-06 2.05502397e-06 0. 0. 0. 0. 0. 0. 0. 0. 0. 0. 0. 0.
      0. 0. 0. 0. 0. 0. 0. 0. 0. 0. 0. 0. 0. 0. 0. 0. 0. 0. 0. 0. 0.
      3.75123875e-07 3.75123875e-07 4.07036305e-06 4.07036305e-06
      8.41162091e-06 8.41162091e-06 8.41162091e-06 7.79814218e-06
      7.79814218e-06 4.34403364e-06 4.34403364e-06 -1.02545494e-06
      -1.02545494e-06 -1.02545494e-06 -9.99153940e-07 2.45495426e-06
      -8.76851232e-07 -8.76851232e-07 -2.22588756e-06 -2.22588756e-06
      -2.22588756e-06 -2.34469735e-06 9.87108365e-07 -5.13368695e-06
      2.35801494e-07 2.35801494e-07 2.35801494e-07 -3.45943772e-06
      2.66135794e-06 2.66135794e-06 2.66135794e-06 2.28623389e-06
      -3.08325457e-06 6.11984490e-07 6.11984490e-07 1.96102087e-06
      -2.28772842e-06 -1.49440116e-09 8.17512137e-06 2.05432548e-06
      -1.16432102e-06 -1.16432102e-06 -2.65591416e-06 -4.94214828e-06
      -1.70388944e-07 -8.34700404e-06 -6.41078987e-06 -4.73088994e-06
      2.05502397e-06 2.05502397e-06 2.05502397e-06 2.05502397e-06
      2.05502397e-06 2.05502397e-06 2.05502397e-06 2.05502397e-06
      2.05502397e-06 2.05502397e-06 2.05502397e-06 2.05502397e-06
      2.05502397e-06 2.05502397e-06 2.05502397e-06 2.05502397e-06
      2.05502397e-06 2.05502397e-06 2.05502397e-06 0. 0. 0. 0. 0. 0. 0.
      0. 0. 0. 0. 0. 0. 0. 0. 0. 0. 0. 0. 0. 0. 0. 0. 0. 0. 0. 0. 0. 0.
      0. 0. 0. 0. 0. 3.75123875e-07 4.07036305e-06 4.07036305e-06
      4.07036305e-06 6.35659717e-06 8.41162091e-06 6.44910551e-06
      6.44910551e-06 2.99499743e-06 2.99499743e-06 -2.37449126e-06
      -2.37449126e-06 -2.37449126e-06 -2.34819026e-06 1.10591793e-06
      -2.22588756e-06 -2.22588756e-06 -2.22588756e-06 -4.28091153e-06
      -4.28091153e-06 -2.34469735e-06 -2.34469735e-06 -8.46549301e-06
      -5.13368695e-06 -5.13368695e-06 -8.82892618e-06 -3.45943772e-06
      2.66135794e-06 2.28623389e-06 -3.08325457e-06 -3.08325457e-06
      -3.08325457e-06 6.11984490e-07 6.11984490e-07 -3.25213108e-07
      -2.28772842e-06 -1.49440116e-09 4.84331531e-06 -1.27748012e-06
      2.53091821e-06 -1.16432102e-06 -2.65591416e-06 -4.94214828e-06
      1.17864749e-06 1.17864749e-06 -6.41078987e-06 -6.78591414e-06 0.
      2.05502397e-06 2.05502397e-06 2.05502397e-06 2.05502397e-06
      2.05502397e-06 2.05502397e-06 2.05502397e-06 2.05502397e-06
      2.05502397e-06 2.05502397e-06 2.05502397e-06 2.05502397e-06
      2.05502397e-06 2.05502397e-06 2.05502397e-06 2.05502397e-06
      2.05502397e-06 2.05502397e-06 0. 0. 0. 0. 0. 0. 0. 0. 0. 0. 0. 0.
      0. 0. 0. 0. 0. 0. 0. 0. 0. 0. 0. 0. 0. 0. 0. 0. 0. 0. 0. 0. 0. 0.
      0. 0. 3.75123875e-07 4.07036305e-06 4.07036305e-06 6.35659717e-06
      6.35659717e-06 4.39408177e-06 9.39973404e-07 9.39973404e-07
      -4.42951523e-06 -4.42951523e-06 -4.42951523e-06 -4.40321446e-06
      -9.49105925e-07 -4.28091153e-06 -4.28091153e-06 -4.28091153e-06
      -4.28091153e-06 -4.28091153e-06 -4.28091153e-06 -2.34469735e-06
      -8.46549301e-06 -1.21607318e-05 -8.82892618e-06 -9.20405000e-06
      -9.20405000e-06 -3.08325457e-06 -3.08325457e-06 -3.08325457e-06
      -3.08325457e-06 -3.08325457e-06 -5.36948846e-06 -1.67424946e-06
      -1.67424946e-06 -5.61953402e-06 -3.33329990e-06 -3.33329990e-06
      4.09200857e-06 2.15579416e-06 2.53091821e-06 7.98194208e-07
      -2.65591416e-06 1.17864749e-06 1.17864749e-06 3.11486178e-06
      6.44666716e-06 3.75123875e-07 0. 0. 0. 0. 2.05502397e-06
      2.05502397e-06 2.05502397e-06 2.05502397e-06 2.05502397e-06
      2.05502397e-06 2.05502397e-06 2.05502397e-06 2.05502397e-06
      2.05502397e-06 2.05502397e-06 2.05502397e-06 2.05502397e-06
      2.05502397e-06 0. 0. 0. 0. 0. 0. 0. 0. 0. 0. 0. 0. 0. 0. 0. 0. 0.
      0. 0. 0. 0. 0. 0. 0. 0. 0. 0. 0. 0. 0. 0. 0. 0. 0. 0. 0. 0. 0.
      3.75123875e-07 3.75123875e-07 3.75123875e-07 6.98842598e-07
      -2.75526577e-06 -2.75526577e-06 -2.75526577e-06 -2.75526577e-06
      -2.75526577e-06 -7.92750484e-07 -2.72896477e-06 -4.28091153e-06
      -4.28091153e-06 -4.28091153e-06 -4.28091153e-06 -4.28091153e-06
      -4.28091153e-06 -4.28091153e-06 -1.21607318e-05 -1.25358556e-05
      -1.25358556e-05 -1.25358556e-05 -9.20405000e-06 -3.08325457e-06
      -5.36948846e-06 -5.36948846e-06 -5.36948846e-06 -5.36948846e-06
      -5.36948846e-06 -5.00605529e-06 -5.00605529e-06 -5.61953402e-06
      -3.33329990e-06 2.03618856e-06 4.09200857e-06 2.15579416e-06
      2.53091821e-06 4.49343315e-06 1.03932507e-06 1.17864749e-06
      1.17864749e-06 6.44666716e-06 6.44666716e-06 8.55173948e-06
      8.55173948e-06 8.55173948e-06 3.75123875e-07 3.75123875e-07
      3.75123875e-07 3.75123875e-07 0. 0. 0. 0. 0. 0. 0. 0. 0. 0. 0. 0.
      0. 0. 0. 0. 0. 0. 0. 0. 0. 0. 0. 0. 0. 0. 0. 0. 0. 0. 0. 0. 0. 0.
      0. 0. 0. 0. 0. 0. 0. 0. 0. 0. 0. 0. 0. 0. 0. 0. 0. 0. 0.
      -1.96251517e-06 -5.41662348e-06 -2.75526577e-06 -2.75526577e-06
      -2.75526577e-06 -2.75526577e-06 -7.92750484e-07 -7.92750484e-07
      -2.60666206e-06 -7.97615030e-06 -8.35127503e-06 -8.35127503e-06
      -8.35127503e-06 -8.35127503e-06 -8.35127503e-06 -1.25358556e-05
      -1.25358556e-05 -1.25358556e-05 -1.48220897e-05 -1.48220897e-05
      -8.70129406e-06 -5.36948846e-06 -5.36948846e-06 -8.70129406e-06
      -8.70129406e-06 -8.70129406e-06 -8.70129406e-06 -5.00605529e-06
      -6.96857023e-06 -5.61953402e-06 -4.08460710e-06 4.09200857e-06
      2.15579416e-06 2.53091821e-06 4.49343315e-06 1.03932507e-06
      7.16012073e-06 8.20569221e-06 1.01419064e-05 1.01419064e-05
      1.22469783e-05 1.22469783e-05 1.22469783e-05 8.55173948e-06
      8.55173948e-06 8.55173948e-06 3.75123875e-07 0. 0. 0. 0. 0. 0. 0.
      0. 0. 0. 0. 0. 0. 0. 0. 0. 0. 0. 0. 0. 0. 0. 0. 0. 0. 0. 0. 0. 0.
      0. 0. 0. 0. 0. 0. 0. 0. 0. 0. 0. 0. 0. 0. 0. 0. 0. 0. 0. 0. 0. 0.
      0. 0. -1.96251517e-06 -5.41662348e-06 -5.41662348e-06
      -5.41662348e-06 -5.41662348e-06 -3.13038959e-06 -1.16787430e-06
      -1.16787430e-06 -2.98178588e-06 -2.98178588e-06 -2.98178588e-06
      -8.35127503e-06 -8.35127503e-06 -8.35127503e-06 -1.06375082e-05
      -1.67583039e-05 -1.48220897e-05 -1.48220897e-05 -1.48220897e-05
      -1.48220897e-05 -8.70129406e-06 -8.70129406e-06 -8.70129406e-06
      -8.70129406e-06 -8.70129406e-06 -8.70129406e-06 -8.70129406e-06
      -6.96857023e-06 -1.59908177e-06 -7.71987743e-06 -5.43364331e-06
      -4.08460710e-06 2.15579416e-06 2.15579416e-06 4.49343315e-06
      1.03932507e-06 1.04919263e-05 8.20569221e-06 1.01419064e-05
      1.01419064e-05 1.22469783e-05 1.22469783e-05 1.22469783e-05
      8.55173948e-06 8.55173948e-06 8.55173948e-06 3.75123875e-07 0. 0.
      0. 0. 0. 0. 0. 0. 0. 0. 0. 0. 0. 0. 0. 0. 0. 0. 0. 0. 0. 0. 0. 0.
      0. 0. 0. 0. 0. 0. 0. 0. 0. 0. 0. 0. 0. 0. 0. 0. 0. 0. 0. 0. 0. 0.
      0. 0. 0. 0. 0. 0. 0. -1.96251517e-06 -5.41662348e-06
      -5.41662348e-06 -5.41662348e-06 -5.41662348e-06 -5.41662348e-06
      -3.45410831e-06 -3.45410831e-06 -6.78591414e-06 -5.26801978e-06
      -5.26801978e-06 -5.26801978e-06 -5.26801978e-06 -5.26801978e-06
      -1.06375082e-05 -1.67583039e-05 -1.67583039e-05 -1.48220897e-05
      -1.48220897e-05 -1.48220897e-05 -8.70129406e-06 -8.70129406e-06
      -8.70129406e-06 -8.70129406e-06 -8.70129406e-06 -8.70129406e-06
      -3.33180560e-06 -5.29432100e-06 -1.59908177e-06 -7.71987743e-06
      -7.71987743e-06 -7.36985749e-06 -7.36985749e-06 -4.05830588e-06
      6.64201139e-07 4.37113067e-06 1.04919263e-05 1.04919263e-05
      1.01419064e-05 1.01419064e-05 1.22469783e-05 1.22469783e-05
      1.22469783e-05 8.55173948e-06 8.55173948e-06 8.55173948e-06
      3.75123875e-07 0. 0. 0. 0. 0. 0. 0. 0. 0. 0. 0. 0. 0. 0. 0. 0. 0.
      0. 0. 0. 0. 0. 0. 0. 0. 0. 0. 0. 0. 0. 0. 0. 0. 0. 0. 0. 0. 0. 0.
      0. 0. 0. 0. 0. 0. 0. 0. 0. 0. 0. 0. 0. 0. -1.96251517e-06
      -1.96251517e-06 -5.41662348e-06 -5.41662348e-06 -5.41662348e-06
      -5.41662348e-06 -3.45410831e-06 -3.45410831e-06 -3.45410831e-06
      -8.72212786e-06 -5.26801978e-06 -5.26801978e-06 -5.26801978e-06
      -5.26801978e-06 -5.26801978e-06 -1.13888154e-05 -1.13888154e-05
      -9.45260126e-06 -9.45260126e-06 -9.45260126e-06 -3.33180560e-06
      -3.33180560e-06 -3.33180560e-06 -3.33180560e-06 -3.33180560e-06
      -3.33180560e-06 -5.29432100e-06 -5.29432100e-06 -1.14151162e-05
      -7.71987743e-06 -7.71987743e-06 -7.36985749e-06 -7.36985749e-06
      -5.52964502e-06 -5.52964502e-06 -5.52964502e-06 9.14289012e-06
      1.10791043e-05 1.10791043e-05 8.79287018e-06 1.22469783e-05
      1.22469783e-05 1.22469783e-05 8.55173948e-06 8.55173948e-06
      8.55173948e-06 3.75123875e-07 0. 0. 0. 0. 0. 0. 0. 0. 0. 0. 0. 0.
      0. 0. 0. 0. 0. 0. 0. 0. 0. 0. 0. 0. 0. 0. 0. 0. 0. 0. 0. 0. 0. 0.
      0. 0. 0. 0. 0. 0. 0. 0. 0. 0. 0. 0. 0. 0. 0. 0. 0. 0. 0.
      -1.96251517e-06 -1.96251517e-06 -5.41662348e-06 -5.41662348e-06
      -5.41662348e-06 -5.41662348e-06 -3.45410831e-06 -3.45410831e-06
      -3.45410831e-06 -6.78591414e-06 -8.72212786e-06 -8.72212786e-06
      -5.26801978e-06 -5.26801978e-06 -5.26801978e-06 -1.13888154e-05
      -1.13888154e-05 -1.13888154e-05 -9.45260126e-06 -9.45260126e-06
      -3.33180560e-06 -3.33180560e-06 -3.33180560e-06 -3.33180560e-06
      -3.33180560e-06 -5.29432100e-06 -1.14151162e-05 -1.14151162e-05
      -1.14151162e-05 -1.14151162e-05 -1.14151162e-05 -4.03805188e-06
      -4.03805188e-06 -5.52964502e-06 -5.52964502e-06 -5.52964502e-06
      5.91150467e-07 2.52736481e-06 1.10791043e-05 8.79287018e-06
      1.22469783e-05 1.22469783e-05 1.22469783e-05 8.55173948e-06
      8.55173948e-06 8.55173948e-06 0. 0. 0. 0. 0. 0. 0. 0. 0. 0. 0. 0.
      0. 0. 0. 0. 0. 0. 0. 0. 0. 0. 0. 0. 0. 0. 0. 0. 0. 0. 0. 0. 0. 0.
      0. 0. 0. 0. 0. 0. 0. 0. 0. 0. 0. 0. 0. 0. 0. 0. 0. 0. 0. 0.
      -1.96251517e-06 -1.96251517e-06 -1.96251517e-06 -5.41662348e-06
      -5.41662348e-06 -5.41662348e-06 -3.45410831e-06 -3.45410831e-06
      -3.45410831e-06 -6.78591414e-06 -8.72212786e-06 -8.72212786e-06
      -8.72212786e-06 -8.72212786e-06 -5.39032271e-06 -8.05700984e-06
      -1.13888154e-05 -1.13888154e-05 -1.13888154e-05 -9.45260126e-06
      -9.45260126e-06 -3.33180560e-06 -3.33180560e-06 -3.33180560e-06
      -1.14151162e-05 -1.14151162e-05 -1.14151162e-05 -8.08331060e-06
      -8.08331060e-06 -8.08331060e-06 -1.00195248e-05 -1.34736338e-05
      -1.11873997e-05 -5.52964502e-06 -5.52964502e-06 5.91150467e-07
      5.91150467e-07 2.52736481e-06 2.52736481e-06 2.52736481e-06
      2.28623389e-06 0. 0. 0. 0. 0. 0. 0. 0. 0. 0. 0. 0. 0. 0. 0. 0. 0.
      0. 0. 0. 0. 0. 0. 0. 0. 0. 0. 0. 0. 0. 0. 0. 0. 0. 0. 0. 0. 0. 0.
      0. 0. 0. 0. 0. 0. 0. 0. 0. 0. 0. 0. 0. 0. 0. 0. 0. 0. 0. 0.
      -1.96251517e-06 -1.96251517e-06 -1.96251517e-06 -5.41662348e-06
      -5.41662348e-06 -5.41662348e-06 -5.41662348e-06 -3.45410831e-06
      -3.45410831e-06 -6.78591414e-06 -6.78591414e-06 -8.72212786e-06
      -8.72212786e-06 -8.72212786e-06 -5.39032271e-06 -1.15111179e-05
      -1.15111179e-05 -1.15111179e-05 -8.05700984e-06 -8.05700984e-06
      -6.12079566e-06 -8.08331060e-06 -8.08331060e-06 -8.08331060e-06
      -8.08331060e-06 -8.08331060e-06 -8.08331060e-06 -8.08331060e-06
      -1.15374187e-05 -1.34736338e-05 -1.34736338e-05 -1.34736338e-05
      -9.22488380e-06 -9.22488380e-06 -3.10408859e-06 -3.10408859e-06
      -1.16787430e-06 -1.16787430e-06 -1.16787430e-06 2.28623389e-06
      2.28623389e-06 2.28623389e-06 2.28623389e-06 2.28623389e-06 0. 0.
      0. 0. 0. 0. 0. 0. 0. 0. 0. 0. 0. 0. 0. 0. 0. 0. 0. 0. 0. 0. 0. 0.
      0. 0. 0. 0. 0. 0. 0. 0. 0. 0. 0. 0. 0. 0. 0. 0. 0. 0. 0. 0. 0. 0.
      0. 0. 0. 0. 0. 0. 0. 0. 0. 0. -1.96251517e-06 -1.96251517e-06
      -1.96251517e-06 -5.41662348e-06 -5.41662348e-06 -5.41662348e-06
      -5.41662348e-06 -5.41662348e-06 -3.45410831e-06 -3.45410831e-06
      -3.45410831e-06 -3.45410831e-06 -5.39032271e-06 -5.39032271e-06
      -5.39032271e-06 -1.15111179e-05 -1.15111179e-05 -1.15111179e-05
      -1.34736338e-05 -1.34736338e-05 -1.34736338e-05 -1.15374187e-05
      -1.15374187e-05 -1.15374187e-05 -1.15374187e-05 -1.15374187e-05
      -1.15374187e-05 -1.15374187e-05 -1.34736338e-05 -1.34736338e-05
      -1.34736338e-05 -1.15111179e-05 -1.15111179e-05 -3.10408859e-06
      -3.10408859e-06 -3.10408859e-06 -1.16787430e-06 -1.16787430e-06
      -1.16787430e-06 2.28623389e-06 2.28623389e-06 2.28623389e-06
      2.28623389e-06 2.28623389e-06 2.28623389e-06 2.28623389e-06 0. 0.
      0. 0. 0. 0. 0. 0. 0. 0. 0. 0. 0. 0. 0. 0. 0. 0. 0. 0. 0. 0. 0. 0.
      0. 0. 0. 0. 0. 0. 0. 0. 0. 0. 0. 0. 0. 0. 0. 0. 0. 0. 0. 0. 0. 0.
      0. 0. 0. 0. 0. 0. 0. 0. -1.96251517e-06 -1.96251517e-06
      -1.96251517e-06 -5.41662348e-06 -5.41662348e-06 -5.41662348e-06
      -5.41662348e-06 -5.41662348e-06 -5.41662348e-06 -5.41662348e-06
      -5.41662348e-06 -5.41662348e-06 -5.39032271e-06 -7.35283811e-06
      -7.35283811e-06 -1.34736338e-05 -1.34736338e-05 -1.34736338e-05
      -1.34736338e-05 -1.34736338e-05 -1.34736338e-05 -1.34736338e-05
      -1.34736338e-05 -1.15374187e-05 -1.15374187e-05 -1.15374187e-05
      -1.34736338e-05 -1.34736338e-05 -1.34736338e-05 -1.34736338e-05
      -1.34736338e-05 -1.15111179e-05 -5.39032271e-06 -5.39032271e-06
      -3.10408859e-06 -3.10408859e-06 -1.16787430e-06 -1.16787430e-06
      2.28623389e-06 2.28623389e-06 2.28623389e-06 2.28623389e-06
      2.28623389e-06 2.28623389e-06 2.28623389e-06 2.28623389e-06 0. 0.
      0. 0. 0. 0. 0. 0. 0. 0. 0. 0. 0. 0. 0. 0. 0. 0. 0. 0. 0. 0. 0. 0.
      0. 0. 0. 0. 0. 0. 0. 0. 0. 0. 0. 0. 0. 0. 0. 0. 0. 0. 0. 0. 0. 0.
      0. 0. 0. 0. 0. 0. 0. 0. 0. -1.96251517e-06 -1.96251517e-06
      -1.96251517e-06 -5.41662348e-06 -5.41662348e-06 -5.41662348e-06
      -5.41662348e-06 -5.41662348e-06 -5.41662348e-06 -5.41662348e-06
      -5.41662348e-06 -5.41662348e-06 -7.35283811e-06 -7.35283811e-06
      -1.34736338e-05 -1.34736338e-05 -1.34736338e-05 -1.34736338e-05
      -1.34736338e-05 -1.34736338e-05 -1.34736338e-05 -1.34736338e-05
      -1.34736338e-05 -1.34736338e-05 -1.34736338e-05 -1.34736338e-05
      -1.34736338e-05 -1.34736338e-05 -1.34736338e-05 -1.15111179e-05
      -5.39032271e-06 -5.39032271e-06 -5.39032271e-06 -5.39032271e-06
      -1.16787430e-06 -1.16787430e-06 2.28623389e-06 2.28623389e-06
      2.28623389e-06 2.28623389e-06 2.28623389e-06 2.28623389e-06
      2.28623389e-06 2.28623389e-06 2.28623389e-06 0. 0. 0. 0. 0. 0. 0.
      0. 0. 0. 0. 0. 0. 0. 0. 0. 0. 0. 0. 0. 0. 0. 0. 0. 0. 0. 0. 0. 0.
      0. 0. 0. 0. 0. 0. 0. 0. 0. 0. 0. 0. 0. 0. 0. 0. 0. 0. 0. 0. 0. 0.
      0. 0. 0. 0. -1.96251517e-06 -1.96251517e-06 -1.96251517e-06
      -1.96251517e-06 -1.96251517e-06 -1.96251517e-06 -1.96251517e-06
      -1.96251517e-06 -1.96251517e-06 -5.41662348e-06 -5.41662348e-06
      -5.41662348e-06 -5.41662348e-06 -7.35283811e-06 -7.35283811e-06
      -1.34736338e-05 -1.34736338e-05 -1.34736338e-05 -1.34736338e-05
      -1.34736338e-05 -1.34736338e-05 -1.34736338e-05 -1.34736338e-05
      -1.34736338e-05 -1.34736338e-05 -1.34736338e-05 -1.34736338e-05
      -1.15111179e-05 -5.39032271e-06 -5.39032271e-06 -5.39032271e-06
      -5.39032271e-06 -5.39032271e-06 -3.45410831e-06 0. 2.28623389e-06
      2.28623389e-06 2.28623389e-06 2.28623389e-06 2.28623389e-06
      2.28623389e-06 2.28623389e-06 2.28623389e-06 2.28623389e-06
      2.28623389e-06 0. 0. 0. 0. 0. 0. 0. 0. 0. 0. 0. 0. 0. 0. 0. 0. 0.
      0. 0. 0. 0. 0. 0. 0. 0. 0. 0. 0. 0. 0. 0. 0. 0. 0. 0. 0. 0. 0. 0.
      0. 0. 0. 0. 0. 0. 0. 0. 0. 0. 0. 0. 0. 0. 0. 0. 0. -1.96251517e-06
      -1.96251517e-06 -1.96251517e-06 -1.96251517e-06 -1.96251517e-06
      -1.96251517e-06 -1.96251517e-06 -1.96251517e-06 -1.96251517e-06
      -1.96251517e-06 -1.96251517e-06 -5.41662348e-06 -5.41662348e-06
      -7.35283811e-06 -7.35283811e-06 -7.35283811e-06 -7.35283811e-06
      -7.35283811e-06 -7.35283811e-06 -7.35283811e-06 -7.35283811e-06
      -7.35283811e-06 -7.35283811e-06 -7.35283811e-06 -5.39032271e-06
      -5.39032271e-06 -5.39032271e-06 -5.39032271e-06 -5.39032271e-06
      -5.39032271e-06 -5.39032271e-06 -1.93621440e-06 0. 0. 0. 0.
      2.28623389e-06 2.28623389e-06 2.28623389e-06 2.28623389e-06
      2.28623389e-06 2.28623389e-06 2.28623389e-06 2.28623389e-06 0. 0.
      0. 0. 0. 0. 0. 0. 0. 0. 0. 0. 0. 0. 0. 0. 0. 0. 0. 0. 0. 0. 0. 0.
      0. 0. 0. 0. 0. 0. 0. 0. 0. 0. 0. 0. 0. 0. 0. 0. 0. 0. 0. 0. 0. 0.
      0. 0. 0. 0. 0. 0. 0. 0. 0. 0. 0. 0. -1.96251517e-06
      -1.96251517e-06 -1.96251517e-06 -1.96251517e-06 -1.96251517e-06
      -1.96251517e-06 -1.96251517e-06 -1.96251517e-06 -1.96251517e-06
      -1.96251517e-06 -1.96251517e-06 -1.96251517e-06 -1.96251517e-06
      -3.89872957e-06 -3.89872957e-06 -3.89872957e-06 -3.89872957e-06
      -3.89872957e-06 -3.89872957e-06 -1.93621440e-06 -1.93621440e-06
      -1.93621440e-06 -1.93621440e-06 -1.93621440e-06 -1.93621440e-06
      -1.93621440e-06 -1.93621440e-06 -1.93621440e-06 0. 0. 0. 0. 0. 0.
      0. 0. 0. 0. 0. 0. 0. 0. 0. 0. 0. 0. 0. 0. 0. 0. 0. 0. 0. 0. 0. 0.
      0. 0. 0. 0. 0. 0. 0. 0. 0. 0. 0. 0. 0. 0. 0. 0. 0. 0. 0. 0. 0. 0.
      0. 0. 0. 0. 0. 0. 0. 0. 0. 0. 0. 0. 0. 0. 0. 0. 0. 0. 0. 0. 0. 0.
      0. 0. 0. -1.96251517e-06 -1.96251517e-06 -1.96251517e-06
      -1.96251517e-06 -1.96251517e-06 -1.96251517e-06 -1.96251517e-06
      -1.96251517e-06 -1.96251517e-06 -1.96251517e-06 -1.96251517e-06 0.
      -1.93621440e-06 -1.93621440e-06 -1.93621440e-06 -1.93621440e-06
      -1.93621440e-06 -1.93621440e-06 -1.93621440e-06 -1.93621440e-06
      -1.93621440e-06 -1.93621440e-06 -1.93621440e-06 -1.93621440e-06 0.
      0. 0. 0. 0. 0. 0. 0. 0. 0. 0. 0. 0. 0. 0. 0. 0. 0. 0. 0. 0. 0. 0.
      0. 0. 0. 0. 0. 0. 0. 0. 0. 0. 0. 0. 0. 0. 0. 0. 0. 0. 0. 0. 0. 0.
      0. 0. 0. 0. 0. 0. 0. 0. 0. 0. 0. 0. 0. 0. 0. 0. 0. 0. 0. 0. 0. 0.
      0. 0. 0. 0. 0. 0. 0. 0. 0. 0. 0. 0. 0. 0. 0. 0. 0. 0. 0. 0. 0. 0.
      0. 0. 0. 0. 0. 0. 0. 0. 0. 0. 0. 0. 0. 0. 0. 0. 0. 0. 0. 0. 0. 0.
      0. 0. 0. 0. 0. 0. 0. 0. 0. 0. 0. 0. 0. 0. 0. 0. 0. 0. 0. 0. 0. 0.
      0. 0. 0. 0. 0. 0. 0. 0. 0. 0. 0. 0. 0. 0. 0. 0. 0. 0. 0. 0. 0. 0.
      0. 0. 0. 0. 0. 0. 0. 0. 0. 0. 0. 0. 0. 0. 0. 0. 0. 0. 0. 0. 0. 0.
      0. 0. 0. 0. 0. 0. 0. 0. 0. 0. 0. 0. 0. 0. 0. 0. 0. 0. 0. 0. 0. 0.
      0. 0. 0. 0. 0. 0. 0. 0. 0. 0. 0. 0. 0. 0. 0. 0. 0. 0. 0. 0. 0. 0.
      0. 0. 0. 0. 0. 0. 0. 0. 0. 0. 0. 0. 0. 0. 0. 0. 0. 0. 0. 0. 0. 0.
      0. 0. 0. 0. 0. 0. 0. 0. 0. 0. 0. 0. 0. 0. 0. 0. 0. 0. 0. 0. 0. 0.
      0. 0. 0. 0. 0. 0. 0. 0. 0. 0. 0. 0. 0. 0. 0. 0. 0. 0. 0. 0. 0. 0.
      0. 0. 0. 0. 0. 0. 0. 0. 0. 0. 0. 0. 0. 0. 0. 0. 0. 0. 0. 0. 0. 0.
      0. 0. 0. 0. 0. 0. 0. 0. 0. 0. 0. 0. 0. 0. 0. 0. 0. 0. 0. 0. 0. 0.
      0. 0. 0. 0. 0. 0. 0. 0. 0. 0. 0. 0. 0. 0. 0. 0. 0. 0. 0. 0. 0. 0.
      0. 0. 0. 0. 0. 0. 0. 0. 0. 0. 0. 0. 0. 0. 0. 0. 0. 0. 0. 0. 0. 0.
      0. 0. 0. 0. 0. 0. 0. 0. 0. 0. 0. 0. 0. 0. 0. 0. 0. 0. 0. 0. 0. 0.
      0. 0. 0. 0. 0. 0. 0. 0. 0. 0. 0. 0. 0. 0. 0. 0. 0. 0. 0. 0. 0. 0.
      0. 0. 0. 0. 0. 0. 0. 0. 0. 0. 0. 0. 0. 0. 0. 0. 0. 0. 0. 0. 0. 0.
      0. 0. 0. 0. 0. 0. 0. 0. 0. 0. 0. 0. 0. 0. 0. 0. 0. 0. 0. 0. 0. 0.
      0. 0. 0. 0. 0. 0. 0. 0. 0. 0. 0. 0. 0. 0. 0. 0. 0. 0. 0. 0. 0. 0.
      0. 0. 0. 0. 0. 0. 0. 0. 0. 0. 0. 0. 0. 0. 0. 0. 0. 0. 0. 0. 0. 0.
      0. 0. 0. 0. 0. 0. 0. 0. 0. 0. 0. 0. 0. 0. 0. 0. 0. 0. 0. 0. 0. 0.
      0. 0. 0. 0. 0. 0. 0. 0. 0. 0. 0. 0. 0. 0. 0. 0. 0. 0. 0. 0. 0. 0.
      0. 0. 0. 0. 0. 0. 0. 0. 0. 0. 0. 0. 0. 0. 0. 0. 0. 0. 0. 0. 0. 0.
      0. 0. 0. 0. 0. 0. 0. 0. 0. 0. 0. 0. 0. 0. 0. 0. 0. 0. 0. 0. 0. 0.
      0. 0. 0. 0. 0. 0. 0. 0. 0. 0. 0. 0. 0. 0. 0. 0. 0. 0. 0. 0. 0. 0.
      0. 0. 0. 0. 0. 0. 0. 0. 0. 0. 0. 0. 0. 0. 0. 0. 0. 0. 0. 0. 0. 0.
      0. 0. 0. 0. 0. 0. 0. 0. 0. 0. 0. 0. 0. 0. 0. 0. 0. 0. 0. 0. 0. 0.
      0. 0. 0. 0. 0. 0. 0. 0. 0. 0. 0. 0. 0. 0. 0. 0. 0. 0. 0. 0. 0. 0.
      0. 0. 0. 0. 0. 0. 0. 0. 0. 0. 0. 0. 0. 0. 0. 0. 0. 0. 0. 0. 0. 0.
      0. 0. 0. 0. 0. 0. 0. 0. 0. 0. 0. 0. 0. 0. 0. 0. 0. 0. 0. 0. 0. 0.
      0. 0. 0. 0. 0. 0. 0. 0. 0. 0. 0. 0. 0. 0. 0. 0. 0. 0. 0. 0. 0. 0.
      0. 0. 0. 0. 0. 0. 0. 0. 0. 0. 0. 0. 0. 0. 0. 0. 0. 0. 0. 0. 0. 0.
      0. 0. 0. 0. 0. 0. 0. 0. 0. 0. 0. 0. 0. 0. 0. 0. 0. 0. 0. 0. 0. 0.
      0. 0. 0. 0. 0. 0. 0. 0. 0. 0. 0. 0. 0. 0. 0. 0. 0. 0. 0. 0. 0. 0.
      0. 0. 0. 0. 0. 0. 0. 0. 0. 0. 0. 0. 0. 0. 0. 0. 0. 0. 0. 0. 0. 0.
      0. 0. 0. 0. 0. 0. 0. 0. 0. 0. 0. 0. 0. 0. 0. 0. 0. 0. 0. 0. 0. 0.
      0. 0. 0. 0. 0. 0. 0. 0. 0. 0. 0. 0. 0. 0. 0. 0. 0. 0. 0. 0. 0. 0.
      0. 0. 0. 0. 0. 0. 0. 0. 0. 0. 0. 0. 0. 0. 0. 0. 0. 0. 0. 0. 0. 0.
      0. 0. 0. 0. 0. 0. 0. 0. 0. 0. 0. 0. 0. 0. 0. 0. 0. 0. 0. 0. 0. 0.
      0. 0. 0. 0. 0. 0. 0. 0. 0. 0. 0. 0. 0. 0. 0.</_>
    <_>
      0. 0. 0. 0. 0. 0. 0. 0. 0. 0. 0. 0. 0. 0. 0. 0. 0. 0. 0. 0. 0. 0.
      0. 0. 0. 0. 0. 0. 0. 0. 0. 0. 0. 0. 0. 0. 0. 0. 0. 0. 0. 0. 0. 0.
      0. 0. 0. 0. 0. 0. 0. 0. 0. 0. 0. 0. 0. 0. 0. 0. 0. 0. 0. 0. 0. 0.
      0. 0. 0. 0. 0. 0. 0. 0. 0. 0. 0. 0. 0. 0. 0. 0. 0. 0. 0. 0. 0. 0.
      0. 0. 0. 0. 0. 0. 0. 0. 0. 0. 0. 0. 0. 0. 0. 0. 0. 0. 0. 0. 0. 0.
      0. 0. 0. 0. 0. 0. 0. 0. 0. 0. 0. 0. 0. 0. 0. 0. 0. 0. 0. 0. 0. 0.
      0. 0. 0. 0. 0. 0. 0. 0. 0. 0. 0. 0. 0. 0. 0. 0. 0. 0. 0. 0. 0. 0.
      0. 0. 0. 0. 0. 0. 0. 0. 0. 0. 0. 0. 0. 0. 0. 0. 0. 0. 0. 0. 0. 0.
      0. 0. 0. 0. 0. 0. 0. 0. 0. 0. 0. 0. 0. 0. 0. 0. 0. 0. 0. 0. 0. 0.
      0. 0. 0. 0. 0. 0. 0. 0. 0. 0. 0. 0. 0. 0. 0. 0. 0. 0. 0. 0. 0. 0.
      0. 0. 0. 0. 0. 0. 0. 0. 0. 0. 0. 0. 0. 0. 0. 0. 0. 0. 0. 0. 0. 0.
      0. 0. 0. 0. 0. 0. 0. 0. 0. 0. 0. 0. 0. 0. 0. 0. 0. 0. 0. 0. 0. 0.
      0. 0. 0. 0. 0. 0. 0. 0. 0. 0. 0. 0. 0. 0. 0. 0. 0. 0. 0. 0. 0. 0.
      0. 0. 0. 0. 0. 0. 0. 0. 0. 0. 0. 0. 0. 0. 0. 0. 0. 0. 0. 0. 0. 0.
      0. 0. 0. 0. 0. 0. 0. 0. 0. 0. 0. 0. 0. 0. 0. 0. 0. 0. 0. 0. 0. 0.
      0. 0. 0. 0. 0. 0. 0. 0. 0. 0. 0. 0. 0. 0. 0. 0. 0. 0. 0. 0. 0. 0.
      0. 0. 0. 0. 0. 0. 0. 0. 0. 0. 0. 0. 0. 0. 0. 0. 0. 0. 0. 0. 0. 0.
      0. 0. 0. 0. 0. 0. 0. 0. 0. 0. 0. 0. 0. 0. 0. 0. 0. 0. 0. 0. 0. 0.
      0. 0. 0. 0. 0. 0. 0. 0. 0. 0. 0. 0. 0. 0. 0. 0. 0. 0. 0. 0. 0. 0.
      0. 0. 0. 0. 0. 0. 0. 0. 0. 0. 0. 0. 0. 0. 0. 0. 0. 0. 0. 0. 0. 0.
      0. 0. 0. 0. 0. 0. 0. 0. 0. 0. 0. 0. 0. 0. 0. 0. 0. 0. 0. 0. 0. 0.
      0. 0. 0. 0. 0. 0. 0. 0. 0. 0. 0. 0. 0. 0. 0. 0. 0. 0. 0. 0. 0. 0.
      0. 0. 0. 0. 0. 0. 0. 0. 0. 0. 0. 0. 0. 0. 0. 0. 0. 0. 0. 0. 0. 0.
      0. 0. 0. 0. 0. 0. 0. 0. 0. 0. 0. 0. 0. 0. 0. 0. 0. 0. 0. 0. 0. 0.
      0. 0. 0. 0. 0. 0. 0. 0. 0. 0. 0. 0. 0. 0. 0. 0. 0. 0. 0. 0. 0. 0.
      0. 0. 0. 0. 0. 0. 0. 0. 0. 0. 0. 0. 0. 0. 0. 0. 0. 0. 0. 0. 0. 0.
      0. 0. 0. 0. 0. 0. 0. 0. 0. 0. 0. 0. 0. 0. 0. 0. 0. 0. 0. 0. 0. 0.
      0. 0. 0. 0. 0. 0. 0. 0. 0. 0. 0. 0. 0. 0. 0. 0. 0. 0. 0. 0. 0. 0.
      0. 0. 0. 0. 0. 0. 0. 0. 0. 0. 0. 0. 0. 0. 0. 0. 0. 0. 0. 0. 0. 0.
      0. 0. 0. 0. 0. 0. 0. 0. 0. 0. 0. 0. 0. 0. 0. 0. 0. 0. 0. 0. 0. 0.
      0. 0. 0. 0. 0. 0. 0. 0. 0. 0. 0. 0. 0. 0. 0. 0. 0. 0. 0. 0. 0. 0.
      0. 0. 0. 0. 0. 0. 0. 0. 0. 0. 0. 0. 0. 0. 0. 0. 0. 0. 0. 0. 0. 0.
      0. 0. 0. 0. 0. 0. 0. 0. 0. 0. 0. 0. 0. 0. 0. 0. 0. 0. 0. 0. 0. 0.
      0. 0. 0. 0. 0. 0. 0. 0. 0. 0. 0. 0. 0. 0. 0. 0. 0. 0. 0. 0. 0. 0.
      0. 0. 0. 0. 0. 0. 0. 0. 0. 0. 0. 0. 0. 0. 0. 0. 0. 0. 0. 0. 0. 0.
      0. 0. 0. 0. 0. 0. 0. 0. 0. 0. 0. 0. 0. 0. 0. 0. 0. 0. 0. 0. 0. 0.
      0. 0. 0. 0. 0. 0. 0. 0. 0. 0. 0. 0. 0. 0. 0. 0. 0. 0. 0. 0. 0. 0.
      0. 0. 0. 0. 0. 0. 0. 0. 0. 0. 0. 0. 0. 0. 0. 0. 0. 0. 0. 0. 0. 0.
      0. 0. 0. 0. 0. 0. 0. 0. 0. 0. 0. 0. 0. 0. 0. 0. 0. 0. 0. 0. 0. 0.
      0. 0. 0. 0. 0. 0. 0. 0. 0. 0. 0. 0. 0. 0. 0. 0. 0. 0. 0. 0. 0. 0.
      0. 0. 0. 0. 0. 0. 0. 0. 0. 0. 0. 0. 0. 0. 0. 0. 0. 0. 0. 0. 0. 0.
      0. 0. 0. 0. 0. 0. 0. 0. 0. 0. 0. 0. 0. 0. 0. 0. 0. 0. 0. 0. 0. 0.
      0. 0. 0. 0. 0. 0. 0. 0. 0. 0. 0. 0. 0. 0. 0. 0. 0. 0. 0. 0. 0. 0.
      0. 0. 0. 0. 0. 0. 0. 0. 0. 0. 0. 0. 0. 0. 0. 0. 0. 0. 0. 0. 0. 0.
      0. 0. 0. 0. 0. 0. 0. 0. 0. 0. 0. 0. 0. 0. 0. 0. 0. 0. 0. 0. 0. 0.
      0. 0. 0. 0. 0. 0. 0. 0. 0. 0. 0. 0. 0. 0. 0. 0. 0. 0. 0. 0. 0. 0.
      0. 0. 0. 0. 0. 0. 0. 0. 0. 0. 0. 0. 0. 0. 0. 0. 0. 0. 0. 0. 0. 0.
      0. 0. 0. 0. 0. 0. 0. 0. 0. 0. 0. 0. 0. 0. 0. 0. 0. 0. 0. 0. 0. 0.
      0. 0. 0. 0. 0. 0. 0. 0. 0. 0. 0. 0. 0. 0. 0. 0. 0. 0. 0. 0. 0. 0.
      0. 0. 0. 0. 0. 0. 0. 0. 0. 0. 0. 0. 0. 0. 0. 0. 0. 0. 0. 0. 0. 0.
      0. 0. 0. 0. 0. 0. 0. 0. 0. 0. 0. 0. 0. 0. 0. 0. 0. 0. 0. 0. 0. 0.
      0. 0. 0. 0. 0. 0. 0. 0. 0. 0. 0. 0. 0. 0. 0. 0. 0. 0. 0. 0. 0. 0.
      0. 0. 0. 0. 0. 0. 0. 0. 0. 0. 0. 0. 0. 0. 0. 0. 0. 0. 0. 0. 0. 0.
      0. 0. 0. 0. 0. 0. 0. 0. 0. 0. 0. 0. 0. 0. 0. 0. 0. 0. 0. 0. 0. 0.
      0. 0. 0. 0. 0. 0. 0. 0. 0. 0. 0. 0. 0. 0. 0. 0. 0. 0. 0. 0. 0. 0.
      0. 0. 0. 0. 0. 0. 0. 0. 0. 0. 0. 0. 0. 0. 0. 0. 0. 0. 0. 0. 0. 0.
      0. 0. 0. 0. 0. 0. 0. 0. 0. 0. 0. 0. 0. 0. 0. 0. 0. 0. 0. 0. 0. 0.
      0. 0. 0. 0. 0. 0. 0. 0. 0. 0. 0. 0. 0. -8.61693650e-07
      -8.61693650e-07 -8.61693650e-07 -8.61693650e-07 -8.61693650e-07 0.
      0. 0. 0. 0. 0. 0. 0. 0. 0. 0. 0. 0. 0. 0. 0. 0. 0. 0. 0. 0. 0. 0.
      0. 0. 0. 0. 0. 0. 0. 0. 0. 0. 0. 0. 0. 0. 0. 0. 0. 0. 0. 0. 0. 0.
      0. 0. 0. 0. 0. 0. 0. 0. 0. 0. 0. 0. 0. 0. 0. 0. 0. 0. 0. 0. 0. 0.
      0. 0. 0. 0. 0. 0. 0. 0. 0. 0. 0. 0. 0. 0. 0. 0. 0. 0. 0.
      -1.75000935e-06 -1.75000935e-06 -1.75000935e-06 -1.75000935e-06
      -1.75000935e-06 -1.75000935e-06 0. 0. 0. -8.61693650e-07
      -8.61693650e-07 -8.61693650e-07 -8.61693650e-07 -8.61693650e-07 0.
      0. 0. 0. 0. 0. 0. 0. 0. 0. 0. 0. 0. 0. 0. 0. 0. 0. 0. 0. 0. 0. 0.
      0. 0. 0. 0. 0. 0. 0. 0. 0. 0. 0. 0. 0. 0. 0. 0. 0. 0. 0. 0. 0. 0.
      0. 0. 0. 0. 0. 0. 0. 0. 0. 0. 0. 0. 0. 0. 0. 0. 0. 0. 0. 0. 0. 0.
      0. 0. 0. 0. 0. 0. 0. 0. 0. 0. 0. 0. 0. 0. 0. 0. 0. 0. 0.
      -1.75000935e-06 -1.75000935e-06 -1.75000935e-06 -5.12982342e-06
      -5.12982342e-06 -5.12982342e-06 -3.37981419e-06 -3.37981419e-06
      -3.37981419e-06 -4.24150767e-06 -8.61693650e-07 -8.61693650e-07
      -8.61693650e-07 -8.61693650e-07 0. 0. 0. 0. 0. 0. 0. 0. 0. 0. 0.
      0. 0. 0. 0. 0. 0. 0. 0. 0. 0. 0. 0. 0. 0. 0. 0. 0. 0. 0. 0. 0. 0.
      0. 0. 0. 0. 0. 0. 0. 0. 0. 0. 0. 0. 0. 0. 0. 0. 0. 0. 0. 0. 0. 0.
      0. 0. 0. 0. 0. 0. 0. 0. 0. 0. 0. 0. 0. 0. 0. 0. 0. 0. 0. 0. 0. 0.
      0. 0. 0. 0. -3.37981419e-06 -3.37981419e-06 -3.37981419e-06
      -3.37981419e-06 -9.55134328e-06 -1.13013530e-05 -1.13013530e-05
      -1.13013530e-05 -1.13013530e-05 -1.13013530e-05 -5.12982342e-06
      -3.37981419e-06 -3.37981419e-06 -3.37981419e-06 -4.24150767e-06
      -4.24150767e-06 -4.24150767e-06 -8.61693650e-07 -8.61693650e-07 0.
      0. 0. 0. 0. 0. 0. 0. 0. 0. 0. 0. 0. 0. 0. 0. 0. 0. 0. 0. 0. 0. 0.
      0. 0. 0. 0. 0. 0. 0. 0. 0. 0. 0. 0. 0. 0. 0. 0. 0. 0. 0. 0. 0. 0.
      0. 0. 0. 0. 0. 0. 0. 0. 0. 0. 0. 0. 0. 0. 0. 0. 0. 0. 0. 0. 0. 0.
      0. 0. 0. 0. 0. 0. 0. 0. 0. 0. 0. -3.37981419e-06 -3.37981419e-06
      -3.37981419e-06 -3.37981419e-06 -3.37981419e-06 -3.37981419e-06
      -3.37981419e-06 -9.55134328e-06 -1.13013530e-05 -1.13013530e-05
      -1.13013530e-05 -1.13013530e-05 -1.13013530e-05 -5.12982342e-06
      -3.37981419e-06 -3.37981419e-06 -3.37981419e-06 -4.24150767e-06
      -4.24150767e-06 -4.24150767e-06 -8.61693650e-07 -8.61693650e-07 0.
      0. 0. 0. 0. 0. 0. 0. 0. 0. 0. 0. 0. 0. 0. 0. 0. 0. 0. 0. 0. 0. 0.
      0. 0. 0. 0. 0. 0. 0. 0. 0. 0. 0. 0. 0. 0. 0. 0. 0. 0. 0. 0. 0. 0.
      0. 0. 0. 0. 0. 0. 0. 0. 0. 0. 0. 0. 0. 0. 0. 0. 0. 0. 0. 0. 0. 0.
      0. -1.75000935e-06 -1.75000935e-06 -1.75000935e-06 -1.75000935e-06
      -1.75000935e-06 -1.75000935e-06 -1.75000935e-06 -3.37981419e-06
      -3.37981419e-06 -3.37981419e-06 -3.37981419e-06 -3.37981419e-06
      -3.37981419e-06 -3.37981419e-06 -3.37981419e-06 -3.37981419e-06
      -3.37981419e-06 -9.55134328e-06 -1.13013530e-05 -1.13013530e-05
      -1.13013530e-05 -1.13013530e-05 -1.13013530e-05 -5.12982342e-06
      -3.37981419e-06 -3.37981419e-06 -4.24150767e-06 -4.24150767e-06
      -4.24150767e-06 -4.24150767e-06 -8.61693650e-07 -8.61693650e-07 0.
      0. 0. 0. 0. 0. 0. 0. 0. 0. 0. 0. 0. 0. 0. 0. 0. 0. 0. 0. 0. 0. 0.
      0. 0. 0. 0. 0. 0. 0. 0. 0. 0. 0. 0. 0. 0. 0. 0. 0. 0. 0. 0. 0. 0.
      0. 0. 0. 0. 0. 0. 0. 0. 0. 0. 0. 0. 0. 0. 0. 0. 0. 0.
      -1.75000935e-06 -1.75000935e-06 -1.75000935e-06 -1.75000935e-06
      -1.75000935e-06 -3.57485715e-06 -3.57485715e-06 -3.57485715e-06
      -3.57485715e-06 -6.95467133e-06 -6.95467133e-06 -6.95467133e-06
      -6.95467133e-06 -6.95467133e-06 -6.95467133e-06 -6.95467133e-06
      -6.95467133e-06 -6.95467133e-06 -5.20466210e-06 -5.20466210e-06
      -5.20466210e-06 -5.20466210e-06 -9.55134328e-06 -1.13013530e-05
      -1.13013530e-05 -1.13013530e-05 -1.13013530e-05 -1.13013530e-05
      -5.12982342e-06 -3.37981419e-06 -3.37981419e-06 -4.24150767e-06
      -4.24150767e-06 -4.24150767e-06 -4.24150767e-06 -8.61693650e-07
      -8.61693650e-07 0. 0. 0. 0. 0. 0. 0. 0. 0. 0. 0. 0. 0. 0. 0. 0. 0.
      0. 0. 0. 0. 0. 0. 0. 0. 0. 0. 0. 0. 0. 0. 0. 0. 0. 0. 0. 0. 0. 0.
      0. 0. 0. 0. 0. 0. 0. 0. 0. 0. 0. 0. 0. 0. 0. 0. 0. 0. 0. 0. 0.
      -1.75000935e-06 -1.75000935e-06 -1.75000935e-06 -3.57485715e-06
      -3.57485715e-06 -3.57485715e-06 -3.57485715e-06 -3.57485715e-06
      -3.57485715e-06 -3.57485715e-06 -6.95467133e-06 -6.95467133e-06
      -6.95467133e-06 -6.95467133e-06 -6.95467133e-06 -6.95467133e-06
      -6.95467133e-06 -6.95467133e-06 -6.95467133e-06 -6.95467133e-06
      -6.95467133e-06 -6.95467133e-06 -6.95467133e-06 -5.20466210e-06
      -5.20466210e-06 -1.13761907e-05 -1.31262004e-05 -1.31262004e-05
      -1.31262004e-05 -1.31262004e-05 -1.31262004e-05 -6.95467133e-06
      -5.20466210e-06 -3.37981419e-06 -4.24150767e-06 -4.24150767e-06
      -4.24150767e-06 -4.24150767e-06 -8.61693650e-07 -8.61693650e-07 0.
      0. 0. 0. 0. 0. 0. 0. 0. 0. 0. 0. 0. 0. 0. 0. 0. 0. 0. 0. 0. 0. 0.
      0. 0. 0. 0. 0. 0. 0. 0. 0. 0. 0. 0. 0. 0. 0. 0. 0. 0. 0. 0. 0. 0.
      0. 0. 0. 0. 0. 0. 0. 0. 0. 0. 0. 0. 0. -1.75000935e-06
      -1.75000935e-06 -1.75000935e-06 -3.57485715e-06 -3.57485715e-06
      -3.57485715e-06 -3.57485715e-06 -3.57485715e-06 -3.57485715e-06
      -3.57485715e-06 -6.95467133e-06 -6.95467133e-06 -6.95467133e-06
      -6.95467133e-06 -6.95467133e-06 -6.95467133e-06 -6.95467133e-06
      -6.95467133e-06 -6.95467133e-06 -6.95467133e-06 -6.95467133e-06
      -6.95467133e-06 -6.95467133e-06 -6.95467133e-06 -6.95467133e-06
      -6.95467133e-06 -6.95467133e-06 -5.20466210e-06 -1.13761907e-05
      -9.74638624e-06 -9.74638624e-06 -9.74638624e-06 -9.74638624e-06
      -3.57485715e-06 -1.82484769e-06 -1.82484769e-06 -2.68654139e-06
      -2.68654139e-06 -2.68654139e-06 -8.61693650e-07 -8.61693650e-07
      -8.61693650e-07 0. 0. 0. 0. 0. 0. 0. 0. 0. 0. 0. 0. 0. 0. 0. 0. 0.
      0. 0. 0. 0. 0. 0. 0. 0. 0. 0. 0. 0. 0. 0. 0. 0. 0. 0. 0. 0. 0. 0.
      0. 0. 0. 0. 0. 0. 0. 0. 0. 0. 0. 0. 0. 0. 0. 0. 0. 0.
      -1.75000935e-06 -3.57485715e-06 -3.57485715e-06 -3.57485715e-06
      -3.57485715e-06 -3.57485715e-06 -3.57485715e-06 -3.57485715e-06
      -3.57485715e-06 -3.57485715e-06 -6.95467133e-06 -6.95467133e-06
      -6.95467133e-06 -6.95467133e-06 -6.95467133e-06 -6.95467133e-06
      -6.95467133e-06 -1.79199355e-06 -1.79199355e-06 -1.79199355e-06
      -1.79199355e-06 -1.79199355e-06 -1.79199355e-06 -1.79199355e-06
      -1.79199355e-06 -1.79199355e-06 1.58782063e-06 1.58782063e-06
      1.58782063e-06 -2.83369900e-06 -9.74638624e-06 -9.74638624e-06
      -9.74638624e-06 -9.74638624e-06 -3.57485715e-06 -1.82484769e-06
      -1.82484769e-06 -2.68654139e-06 -2.68654139e-06 -2.68654139e-06
      -2.68654139e-06 -2.68654139e-06 -1.82484769e-06 0. 0. 0. 0. 0. 0.
      0. 0. 0. 0. 0. 0. 0. 0. 0. 0. 0. 0. 0. 0. 0. 0. 0. 0. 0. 0. 0. 0.
      0. 0. 0. 0. 0. 0. 0. 0. 0. 0. 0. 0. 0. 0. 0. 0. 0. 0. 0. 0. 0. 0.
      0. 0. 0. 0. 0. -1.75000935e-06 -3.57485715e-06 -3.57485715e-06
      -3.57485715e-06 -3.57485715e-06 -3.57485715e-06 -3.57485715e-06
      -3.57485715e-06 -3.57485715e-06 -3.57485715e-06 -3.57485715e-06
      -6.95467133e-06 -6.95467133e-06 -6.95467133e-06 -6.95467133e-06
      -1.79199355e-06 -1.79199355e-06 -1.79199355e-06 -2.15478667e-06
      -5.01590148e-06 -5.01590148e-06 -5.01590148e-06 -5.01590148e-06
      -5.01590148e-06 -1.63608729e-06 -1.63608729e-06 -1.63608729e-06
      -1.63608729e-06 -1.63608729e-06 -1.63608729e-06 -1.63608729e-06
      -7.80761638e-06 -4.94650158e-06 -4.58370823e-06 -9.74638624e-06
      -9.74638624e-06 -3.57485715e-06 -1.82484769e-06 -1.82484769e-06
      -2.68654139e-06 -2.68654139e-06 -2.68654139e-06 -2.68654139e-06
      -2.68654139e-06 -1.82484769e-06 0. 0. 0. 0. 0. 0. 0. 0. 0. 0. 0.
      0. 0. 0. 0. 0. 0. 0. 0. 0. 0. 0. 0. 0. 0. 0. 0. 0. 0. 0. 0. 0. 0.
      0. 0. 0. 0. 0. 0. 0. 0. 0. 0. 0. 0. 0. 0. 0. 0. 0. 0. 0. 0. 0.
      -1.75000935e-06 -3.57485715e-06 -3.57485715e-06 -3.57485715e-06
      -3.57485715e-06 -3.57485715e-06 -3.57485715e-06 -3.57485715e-06
      -3.57485715e-06 -3.57485715e-06 -3.57485715e-06 -6.95467133e-06
      -6.95467133e-06 -9.03677858e-07 -9.03677858e-07 -4.12758573e-06
      -4.12758573e-06 -4.12758573e-06 -4.12758573e-06 -4.12758573e-06
      -2.30273804e-06 -2.30273804e-06 -2.30273804e-06 -6.72933254e-07
      -6.72933254e-07 1.88760382e-07 -1.63608729e-06 -1.63608729e-06
      -1.63608729e-06 -1.63608729e-06 -1.63608729e-06 -1.63608729e-06
      -7.80761638e-06 -7.80761638e-06 -7.80761638e-06 -1.29702939e-05
      -1.29702939e-05 -3.93765004e-06 -2.18764080e-06 -2.18764080e-06
      -2.68654139e-06 -2.68654139e-06 -2.68654139e-06 -2.68654139e-06
      -2.68654139e-06 -1.82484769e-06 0. 0. 0. 0. 0. 0. 0. 0. 0. 0. 0.
      0. 0. 0. 0. 0. 0. 0. 0. 0. 0. 0. 0. 0. 0. 0. 0. 0. 0. 0. 0. 0. 0.
      0. 0. 0. 0. 0. 0. 0. 0. 0. 0. 0. 0. 0. 0. 0. 0. 0. 0. 0. 0.
      -3.57485715e-06 -3.57485715e-06 -3.57485715e-06 -3.57485715e-06
      -3.57485715e-06 -3.57485715e-06 -3.57485715e-06 -3.57485715e-06
      -3.57485715e-06 -3.57485715e-06 -7.81636481e-06 -7.81636481e-06
      -9.03677858e-07 -3.76479261e-06 -4.12758573e-06 -2.30273804e-06
      -2.30273804e-06 -2.30273804e-06 -2.30273804e-06 -2.30273804e-06
      -2.30273804e-06 -2.30273804e-06 1.07707615e-06 1.07707615e-06
      1.07707615e-06 1.07707615e-06 -6.72933254e-07 -6.72933254e-07
      -6.72933254e-07 -6.72933254e-07 -6.72933254e-07 2.43355248e-06
      2.43355248e-06 -3.73797661e-06 -5.56282430e-06 -5.56282430e-06
      -1.07255019e-05 -1.29702939e-05 -6.79876484e-06 -5.04875561e-06
      -2.18764080e-06 -3.04933451e-06 -3.04933451e-06 -3.04933451e-06
      -3.04933451e-06 -2.68654139e-06 -1.82484769e-06 0. 0. 0. 0. 0. 0.
      0. 0. 0. 0. 0. 0. 0. 0. 0. 0. 0. 0. 0. 0. 0. 0. 0. 0. 0. 0. 0. 0.
      0. 0. 0. 0. 0. 0. 0. 0. 0. 0. 0. 0. 0. 0. 0. 0. 0. 0. 0. 0. 0. 0.
      0. 0. -3.57485715e-06 -3.57485715e-06 -3.57485715e-06
      -3.57485715e-06 -3.57485715e-06 -3.57485715e-06 -3.57485715e-06
      -3.57485715e-06 -3.57485715e-06 -4.43655063e-06 -7.81636481e-06
      -6.06635558e-06 -3.76479261e-06 -2.30273804e-06 -2.30273804e-06
      -8.47426691e-06 -8.47426691e-06 -8.47426691e-06 -8.47426691e-06
      -8.47426691e-06 -8.47426691e-06 -5.09445272e-06 -5.09445272e-06
      -5.09445272e-06 -5.09445272e-06 -4.86908721e-06 -4.86908721e-06
      -2.62429512e-06 1.79722451e-06 1.79722451e-06 1.79722451e-06
      1.79722451e-06 1.79722451e-06 1.79722451e-06 -3.51261087e-06
      -3.51261087e-06 -3.51261087e-06 -3.73797661e-06 -5.98276847e-06
      -4.97391738e-06 -3.22390792e-06 -5.04875561e-06 -3.04933451e-06
      -3.04933451e-06 -3.04933451e-06 -3.04933451e-06 -3.04933451e-06
      -2.18764080e-06 0. 0. 0. 0. 0. 0. 0. 0. 0. 0. 0. 0. 0. 0. 0. 0. 0.
      0. 0. 0. 0. 0. 0. 0. 0. 0. 0. 0. 0. 0. 0. 0. 0. 0. 0. 0. 0. 0. 0.
      0. 0. 0. 0. 0. 0. 0. 0. 0. 0. 0. 0. -1.82484769e-06
      -3.57485715e-06 -3.57485715e-06 -3.57485715e-06 -3.57485715e-06
      -3.57485715e-06 -3.57485715e-06 -3.57485715e-06 -4.43655063e-06
      -4.43655063e-06 -6.06635558e-06 -6.06635558e-06 -2.30273804e-06
      -8.47426691e-06 -8.47426691e-06 -8.47426691e-06 -8.47426691e-06
      -8.47426691e-06 -8.47426691e-06 -8.47426691e-06 -8.47426691e-06
      -4.86908721e-06 -4.86908721e-06 -4.86908721e-06 -2.62429512e-06
      -2.62429512e-06 -2.62429512e-06 -2.62429512e-06 -7.78697267e-06
      -7.78697267e-06 -7.78697267e-06 -4.37430435e-06 -4.37430435e-06
      1.79722451e-06 1.79722451e-06 -4.37430435e-06 -4.37430435e-06
      -3.51261087e-06 -3.51261087e-06 -5.98276847e-06 -4.97391738e-06
      -3.22390792e-06 -4.08560163e-06 -1.22448682e-06 -1.22448682e-06
      -1.22448682e-06 -1.22448682e-06 -1.22448682e-06 -3.62793173e-07
      -3.62793173e-07 0. 0. 0. 0. 0. 0. 0. 0. 0. 0. 0. 0. 0. 0. 0. 0. 0.
      0. 0. 0. 0. 0. 0. 0. 0. 0. 0. 0. 0. 0. 0. 0. 0. 0. 0. 0. 0. 0. 0.
      0. 0. 0. 0. 0. 0. 0. 0. 0. 0. -1.82484769e-06 -3.57485715e-06
      -3.57485715e-06 -3.57485715e-06 -3.57485715e-06 -3.57485715e-06
      -3.57485715e-06 -3.57485715e-06 -4.43655063e-06 -4.43655063e-06
      -6.06635558e-06 -4.24150767e-06 -2.30273804e-06 -8.47426691e-06
      -8.47426691e-06 -8.47426691e-06 -8.47426691e-06 -8.47426691e-06
      -8.47426691e-06 -8.24890139e-06 -4.86908721e-06 -4.86908721e-06
      -2.62429512e-06 -2.62429512e-06 1.56991905e-06 -3.59275873e-06
      -3.59275873e-06 -3.59275873e-06 -3.22996561e-06 -3.22996561e-06
      -3.22996561e-06 -3.22996561e-06 -3.59275873e-06 -5.34276796e-06
      -4.37430435e-06 1.79722451e-06 -4.37430435e-06 -4.37430435e-06
      -4.37430435e-06 -4.37430435e-06 -5.75740296e-06 1.88760382e-07
      -3.22390792e-06 -4.08560163e-06 -1.22448682e-06 -1.22448682e-06
      -1.22448682e-06 -1.22448682e-06 -1.22448682e-06 -3.62793173e-07
      -3.62793173e-07 0. 0. 0. 0. 0. 0. 0. 0. 0. 0. 0. 0. 0. 0. 0. 0. 0.
      0. 0. 0. 0. 0. 0. 0. 0. 0. 0. 0. 0. 0. 0. 0. 0. 0. 0. 0. 0. 0. 0.
      0. 0. 0. 0. 0. 0. 0. 0. 0. -1.82484769e-06 -3.57485715e-06
      -3.57485715e-06 -3.57485715e-06 -3.57485715e-06 -3.57485715e-06
      -3.57485715e-06 -4.43655063e-06 -4.43655063e-06 -4.43655063e-06
      -6.06635558e-06 -1.93994492e-06 -8.47426691e-06 -8.47426691e-06
      -8.47426691e-06 -8.47426691e-06 -8.47426691e-06 -8.47426691e-06
      -8.24890139e-06 -8.24890139e-06 -2.62429512e-06 1.56991905e-06
      -2.73106502e-06 -2.73106502e-06 -2.36827191e-06 -3.68850721e-07
      -3.68850721e-07 -3.68850721e-07 -3.68850721e-07 -3.68850721e-07
      -3.68850721e-07 2.07972062e-06 2.07972062e-06 2.07972062e-06
      2.07972062e-06 1.29817465e-06 1.29817465e-06 1.29817465e-06
      -1.56294016e-06 -1.56294016e-06 -4.37430435e-06 -6.61909689e-06
      1.88760382e-07 -3.22390792e-06 -4.08560163e-06 -1.22448682e-06
      -1.22448682e-06 -1.22448682e-06 -1.22448682e-06 -1.22448682e-06
      -3.62793173e-07 -3.62793173e-07 0. 0. 0. 0. 0. 0. 0. 0. 0. 0. 0.
      0. 0. 0. 0. 0. 0. 0. 0. 0. 0. 0. 0. 0. 0. 0. 0. 0. 0. 0. 0. 0. 0.
      0. 0. 0. 0. 0. 0. 0. 0. 0. 0. 0. 0. 0. 0. 0. -1.82484769e-06
      -3.57485715e-06 -3.57485715e-06 -3.57485715e-06 -3.57485715e-06
      -3.57485715e-06 -4.43655063e-06 -4.43655063e-06 -4.43655063e-06
      -4.24150767e-06 -1.93994492e-06 -8.47426691e-06 -8.47426691e-06
      -8.47426691e-06 -8.47426691e-06 -8.47426691e-06 -8.47426691e-06
      -6.00410931e-06 -1.80989525e-06 2.43161276e-06 2.43161276e-06
      -2.73106502e-06 4.92842901e-07 4.92842901e-07 4.92842901e-07
